{
	"layersNodes": [784, 16, 16, 3],
	"weights": [{
		"rows": 16,
		"cols": 784,
		"data": [
			[0.7728259391774848, 0.697114591070402, 0.47630036543540655, 0.3055354979282936, -0.97405026038542, -0.4683599767556883, -0.09528202882401438, -0.294974224644299, -0.14707415842262872, -0.5295641318452651, 0.21307081949768092, -0.3500311484070844, -0.20619137778642438, -0.5143451611501759, 0.8187610390575908, 0.30823265161815305, -0.30646274286504616, -0.8085913889169265, -0.2640773966292902, -0.17269177796068114, 0.5696480267130313, -0.285224204466191, 0.14441681087177205, 0.13900288268351169, 0.20808758687059692, -0.5564753527972579, -0.6972047047225747, 0.8342533007247188, 0.8948121652952441, -0.8431849364880639, -0.9997623203233434, -0.556291538413582, 0.8502056190015468, 0.21238048301841195, 0.6534918885205006, 0.9491147268150772, -0.2448405529305673, -0.5080891868472879, -0.6535692838497538, 0.003912583069548886, -0.7700654704886339, 0.3949576892937071, -0.9702413945124365, 0.32650406178382596, 0.825905048338241, 0.6362586862395269, 0.6518944860441648, -0.8740820711034085, -0.46453654030825264, 0.3994273913131212, -0.3078830994298247, -0.3223546608297734, -0.727037217403975, 0.9218612925135967, 0.9743712355544449, 0.4377509814785676, 0.5765181905424064, 0.45997376287123215, -0.8566426323286018, -0.2852566356122721, -0.13005372276711702, -0.042881291720850076, 0.6650997765876654, 0.7672555777039738, -0.9889584643591659, -0.5122772986091466, -0.8718082003857924, 0.8583396491716607, -0.23360493595799914, 0.2506720997431192, -0.026319079948435447, -0.8005681064627301, -0.9912634812006934, -0.4490031519118483, -0.5941218228663904, -0.5567681184588797, 0.3398501554300038, 0.7352019143107335, 0.3196010280730526, 0.19180219090633904, -0.6608892362487695, 0.9769597760529903, -0.4462417210365217, -0.8991852486161749, -0.6578530354393091, 0.5144023662286936, -0.5326529106876927, -0.40431135075299607, -0.48931108944962065, -0.38998822413399653, -0.32181865097650636, -0.2739837511013935, -1.1593486306610357, -0.05020799099152733, 0.1273966238135124, 0.14400057929304208, 0.4241611404377069, 0.03882638173412091, -0.3941953882529144, 0.6014926842431317, -0.010022288262856739, -0.032648257799170265, 0.8104699390361557, 1.2418337392859207, -0.6841657663184265, 0.7807855244928493, 1.0921087442346324, -0.4073936157059972, -0.1316455643559416, 0.9796323561748606, 0.8321032251175435, 0.8532681410031246, -0.9311051223428581, -0.09281025643272445, 0.6155985530309609, 0.6735155875779739, 0.4774569458114443, 0.4626116140445067, -0.6248186927896162, -1.2358273175212424, -0.13971407466398833, -1.3523223297213662, -0.920227390400678, -0.7858918314841186, -1.4225411245882138, -3.211670549013455, -0.8329516078742443, -0.9163186587211563, -1.6555567850575315, -1.3925302414277803, -0.2381887770120244, -0.2058248983102081, 0.4410796893563565, 0.016530475203525206, 1.1716606037055908, 0.7290496381232312, 0.11575052409170253, 0.11500194831388044, 0.5790125482345158, -0.9988004550900382, 0.2543955842604233, -0.3478868121186487, 0.31777355980345273, -0.48730477391919486, -0.45671296265491845, -0.9410844339410339, -1.1375309338007524, -0.6298442993300077, -1.6210238503608305, -0.46094742432397634, -0.3596238736483535, -1.0378702015553871, -1.9520761231719646, -2.1281194364319482, -2.6216767812105783, -2.310311178154542, -2.2827380542907934, -2.7293239717606617, -1.6145307892085092, 1.1633464907351763, -1.1928849184645145, -0.47882498569237397, 1.5508732938699714, 0.4903990387851638, 1.1815644891304111, -0.23103831561185595, -0.14271712384513474, -0.7934768555205661, 0.41980642569777826, 0.08594301792314818, -0.13708613765752803, 0.16728834437009146, 0.7454134977886612, -1.3896820784887434, -0.18293533786675314, -1.549581777325026, 0.22734342906355187, -2.168105404634503, -1.1366845729782438, -1.3242008806671552, -2.7876127399508275, -0.23435510239055582, -0.8611158524722012, -1.615282637840892, -2.109816556115755, -0.6617373137914561, -1.4345745478431284, -0.05934518390641031, -0.255951785720441, 0.129724042407196, 1.8214260524716859, 1.4239346177840095, 0.17525371592055547, 0.340704623601678, 0.24115764407287066, 0.8393097250864316, -0.09565184719086206, 0.012732290716791272, 0.3335959861870923, 0.9177000973947821, -0.0258682248522964, -1.2385203401943283, -2.4315501913074824, -1.679178786696372, 1.1242706520214192, 0.12862967457988536, -1.1314117993546635, 1.0672770430202998, 1.9433218730296262, 0.468856164546229, -0.7365342462956833, -0.3873779395447132, -0.40426460031961153, -0.8414206988581147, -0.43291694286657073, -0.9719639236065171, 0.8729628178290953, -0.5619466119354207, 2.5331351043627515, 2.247466885757955, 0.9930609707639821, 0.5169362677654281, 0.22707278378952436, -0.7960494319915428, 0.36820033852657996, 0.9177145385070098, -0.3522830253808812, 0.5768076381028032, -0.24029946196032992, -1.4197337376396097, -1.9316845689862105, -0.11187676894854083, 1.267267947903756, 0.17529443290554467, -0.5727132682601196, 0.41930197243208134, 1.337351240671484, 1.8922449810514927, -2.3044770857702646, -3.4035965623239175, -3.234653207408372, -2.4434320684550945, -2.978971445936809, -0.027746564130756546, 0.8863602820902864, 1.2773091978618625, 1.6623626335725377, 2.297032685345366, 2.729607236369014, 0.6782885570443592, 0.026321742901754517, -0.8510878184604626, 0.18512798075772263, -0.8170190880253538, 0.5263485186275203, -0.7285855454311301, 1.223019890497451, -0.3789717030856398, -0.7557015965703797, 1.3109780540812104, 3.350123193398931, 1.7722205248671805, -0.12374740973096628, 1.8964540983040141, 2.5433654378793107, 1.679484052972118, -0.08731588928711759, -3.611556808973098, -2.14838450213444, -1.780500706289097, -0.6734153875919607, -0.4950213042206832, 0.6877078857649181, 1.7357625340885419, 2.0000501219826647, 3.397592999841516, 2.598007295492997, 0.06431288461959339, 0.4969415412767714, 0.2836871699734724, 0.1408755013406009, -0.9554192527669758, 0.8905434117307808, 0.05569876845797793, 1.2566600998097335, 1.4269918028601563, 2.5155407915159125, 3.217153158283193, 5.238131237170667, 1.8716434615813369, 2.769779057065267, 4.875082562131113, 2.2860187105434067, 3.2720666232178277, 3.9258093956758655, 1.956573144278098, -0.9216850665361538, -0.15005874088344917, -1.5305606903384705, -0.41954108787475947, 0.17913723124066905, 2.4790847592965792, 1.5908016813873291, 3.0765102101595425, 1.9425899554251718, 0.6833241351561601, 0.8157713241423692, -0.37616437154873816, 0.5296870458355252, -0.6232064392521228, 0.9000840194185065, 0.897209284750538, -0.27341233485577066, 2.242035859852839, 1.723193658014895, 4.239652655395241, 5.282945840848802, 3.3479267371016896, 4.3397469877316, 5.347516992854392, 7.022117773951546, 5.427186750173534, 5.276934938153002, 1.9760850534497818, 1.8794418880075925, 2.1973370919186426, -0.7487530615928961, -1.7635295637182864, -1.7409904315316802, 1.1864023523698137, 2.75045475493994, 2.598115537116868, 1.229253730798622, 0.7566713248936842, -0.2267410529074711, 0.5038225989658803, -0.5510674222137366, -0.8838694171626247, -0.9272617708024149, -0.04160521125459868, -0.4415569143528331, 0.6717969831794075, 2.76291495307259, 3.5756859711354876, 4.247235351902348, 5.360477098856253, 5.090896068159381, 4.576807541579892, 5.426914781353841, 5.24863295149574, 5.872390775193284, 3.7721289190584337, 4.79337205021773, 2.6584414980937168, -1.4051558092875598, -2.5264240830595424, -0.40923329276728426, 0.9073188306989388, 2.13214881759673, 2.1350289200814276, 0.3084770137765945, -0.05682306279169322, -0.15439322338921282, -0.906880005746331, -0.4863440475471936, -0.9803058370925233, -0.6406492155320835, -0.7449740772620737, -0.5716720194193396, 1.133904938900729, 2.9294140549723195, 3.049694023465832, 2.2921192959175487, 4.233045531618676, 3.4833132030298986, 5.751931250169975, 3.587488118913343, 4.774319912800641, 4.429064492891136, 3.966531299142113, 3.536081397687464, 0.5426824092740533, -2.9588578725689274, -1.9090516324320712, -0.5988932152699845, -0.15860272298299857, 0.810787236261235, 1.0451394968725272, -0.22408055240491478, 0.4478308816419179, -1.3541056136024976, -1.0265834103209048, -0.46679871221758773, -0.8299919954124935, -0.5464176126262399, -0.49860956090438524, 0.39349419241708644, 0.9692105569554731, 1.5588011407432305, 1.9215956998245327, 0.7323692873386175, 1.7283320185453057, 2.0749596439620936, 3.1052216959074848, 4.4580367082655386, 4.053288913309457, 3.1651180378163066, 3.6411002921004143, 1.5631282373274595, 1.0228798146629567, -3.4194542260237144, -1.9427330459237195, -0.16530684211572014, -0.40000842635172384, 0.9563107509049552, 0.02500343908771894, -1.6707070137082518, -0.5529173554745115, -1.2824873148080709, 0.7203786367545552, 0.30573019882993147, 0.5295311262245241, 0.7058363923706386, -0.24711556157969433, -1.740429177803243, -0.9935064199736208, 0.673356238021065, -0.14555564272059116, -0.08840444617658617, -0.14531839024846524, 1.8253282468282264, 1.373881914706228, 1.2296733180459012, 1.4548340324483917, 3.7443667402370955, 2.2336718275421483, 3.25162004363766, 0.8806516243827411, -3.478577134872268, -3.208410719182049, -1.9702228718685444, 0.15045680839757505, -0.5558181485433382, -0.13718378934456937, -0.9299340288516744, -1.7315093292925343, 0.3550041497802689, -0.2695934179834351, 0.6230760217646347, -0.7048429145734554, 0.6458758277966289, -1.001001356490847, -0.9384307519425736, -1.0370910405112244, -0.7866408058882101, -0.29040943392828766, -0.682230630789797, -0.6230248367606057, 0.3256688573886625, 2.020396388841442, 1.2865434073438586, -0.8791179853470809, -0.19196985121179694, 0.6238326245801601, 1.5979928745421947, -0.30196175358466665, -2.712568398957814, -3.314017526693966, -2.6737650030952085, -2.677519721270497, -1.9501107182618405, -1.3388773755924568, -1.5425086696699375, -2.15690392203039, 0.08488840058491798, 0.6129253843381647, -0.7551095333632625, -0.7375154770955321, -0.5089550928291844, -1.18562594344861, -1.0695686392119907, -1.3351373381256328, -0.828044184629121, -1.4749137077875085, 0.11810168997129356, -0.28968893435143783, 1.2322372237422416, 0.549525710272972, 0.2877260419274724, 0.13492308577523554, 1.6070112333092026, -0.10613998586243183, -0.16919878186166704, -2.082866107537548, -1.7573896674804141, 0.00812975156538507, -1.537956412525188, -1.8324079973022231, -1.5786020568568468, -2.9266739872530185, -2.802300413520765, -1.5776010782230847, -0.6233219884992337, 0.1299158131105783, -0.8048393939262906, 0.6199167398689709, -1.181213733853945, -0.2007714126322313, -1.2181956271769805, -0.9578909894088173, -1.7212547613384215, -1.3896379897023436, -0.8795730956901382, -1.4381515923917145, 1.8198988211382796, 0.7341738762982047, -2.172724335763207, -1.9108226163107893, -2.400688954615722, 0.3782787979657232, -0.08645366960348083, -1.6925653700834828, -0.032654888122573035, 2.027089267798218, 0.9552101663365301, -1.8983044336156647, -2.808765043874906, -2.4134921940351393, -3.7555958067719564, -1.9116346769788823, -0.21622222096954408, 0.18811062731205896, 0.5264897498240786, 0.6787239775472296, -0.9984385749613545, 0.30238266836852107, -1.414176633710842, -2.3478110454048835, -2.791710909867626, -1.5999979456898688, -0.3668043983669885, -0.922089161967131, -3.1515534217898473, -2.5421481229824607, -2.500534237732195, -2.701075380658183, -1.4211933126943663, -0.762920552632122, -1.9464365229848588, -0.29964962767782494, -1.3331240184492683, 0.7991370382012727, 0.2218987338037142, 0.9457054492302311, -1.3241381175863682, -1.8755549136754426, -1.3512189118433988, -1.1049457423070133, -0.7003349432803089, -0.417718569726452, -0.8477653314459821, 0.2806668031056696, -0.05387565446189219, 0.21205989403850287, -2.328407139369634, -2.1329498828115696, -1.5669734408875575, -3.2820478833912756, -2.544658950021226, -0.29594722312278626, -2.6392603602488998, -4.9660747705235355, -0.4939328851586517, -2.1102678452557324, 0.5559280908649294, -1.797717335259696, -1.2406920406356272, -0.5724542947034004, 0.9233190433100326, -0.34942513547880605, 0.3944911431716159, 0.9668110999003015, -0.6287547752029672, -0.652880907953548, -0.855107511293352, -1.4407851373175014, -0.29548780975881006, 0.025910804014780187, -0.6820202366504482, 0.5854450176013475, 0.792093569371393, 0.006366485484247096, -0.8372207469232885, -0.41084441153687074, -1.0578734988359606, -1.764072363055293, -1.9736946655811156, -1.777200780773339, -1.6265425778659044, -0.9504255516968474, -1.2646790293103427, -2.950579763106964, -2.3814396801700295, -1.5442051595290192, -2.6899891642143063, -3.1551893604368226, -2.0123951291746556, 0.22133909321093712, 1.749149419392719, 0.6035744684872179, -0.427356574272572, -1.0913768387056968, -2.1474606669967486, -1.5127644903473307, 0.03831719208208903, 0.9606548451701689, -0.16590139866547737, 0.3123996777357645, 0.8338256653107852, 0.6564648983698821, -1.1574254173949807, -0.6150708961220408, -0.472000477267631, -1.3934881492283477, -1.4635780105086957, -2.4559948929099624, -1.0973396183082391, 2.230010413276231, 1.839452546422093, 1.2957027876636957, 1.284610276699745, 1.6365343821425422, -0.504162934691006, -0.31464413011431946, -1.2543935859444804, 0.9474055659256135, 2.1903180527540447, 0.16836298014653267, -0.701878928913962, -0.5798847410299093, -1.6382744057723584, 0.5084380745018996, -0.6765244901098083, -0.9545572010572654, 0.26316082699490373, 0.10272482907778002, 0.6894221878465956, 0.8623571924863854, -0.6686451886829379, -1.8626517518596206, -0.8688062816455958, -2.390691143875683, 1.1160147374522336, 0.5603240520384749, 0.03191007965803472, -0.13455942280548988, 1.2075311838226352, 3.5849354333612435, 3.976288055086898, 4.038694763167057, 3.9052982195802577, 1.0757715633260223, -0.0384275301691665, 0.255336217889971, 1.7811746828368116, 0.7321400252717203, -0.9634340972732719, -0.3918212663468545, -0.14354373567665935, 0.4836144366572079, -0.37530882153236844, -0.0947265702084783, -0.5468354186501085, 0.006324716907905703, 0.12793854873741184, 0.959863917454459, -0.8311970064028864, 0.02050137925807307, -0.6317239237688749, 1.0202474871324705, 0.005192788442550597, 0.8915453062205473, 1.7772240930544987, 1.5269709057067546, 1.8696701196460885, 3.2489948331734104, 3.8803209310914974, 3.0938357712747315, 2.3183815071036475, 0.5419353866117408, 1.0057237527738665, 0.6536493942683609, 0.033806546021226694, -1.0651151366144185, -0.36786872434469925, -0.2929448235048736, -0.6110162377410662, 0.08531959280108584, 0.18435718714068136, -0.5021805427640498, 0.246567062736609, 0.5528014665084813, 0.016766275661119323, -0.7467643278161535, 0.7414833276188768, 0.7760016779006964, -0.7045418387156726, 0.9314282664516846, -0.5701037955473814, 0.2249621175880016, -0.11264383641961406, -0.3391189726910688, -0.808086367725114, 0.11550523098780384, -0.8542265237983663, -0.39858192002963244, -0.035918336971164144, -0.8518940169931911, -0.666575608170044, -0.13063558064571162, -0.018731413988025428, -0.7222759533612353, -0.3615986022382265, -0.4048648884130101, 0.7074941180905278, 0.729549944833533, 0.7329885484208001, 0.3660840228281197, 0.8512074053183265, 0.9578995040641334, -0.7082747935805127, -0.3242655902097922, 0.22637794894758878, -0.48201333657739953, -0.001349096311253806, 0.8237561419552992, -0.6788402046890106, 0.537874896597747, 0.6683845795806693, -0.20429753953344676, -0.9254244174975566, 0.07129827481926465, 0.8605597423458407, -0.32979324898794105, 0.623826778821332, -0.8451467001393291, -0.16522245507611974, 0.5755469751575035, -0.13125034882145242, -0.009355261149378825, 0.5228538879825482, 0.007639004646364017, 0.22789880562605846, 0.06433810845814669, 0.05739607131990132, -0.935794822967356, -0.5269156966639228, 0.35333218565213054, 0.4688063093578214, -0.14414084264389082, 0.040212710070744784, 0.40866431305065865, 0.009839698820910403, -0.9219452767252818, 0.9567714806504402, -0.6616287596806272, -0.7248641390033118, -0.7784771411883442, 0.8172004107153428, -0.9240719056253477, -0.9806463980968476, 0.16107693263801037, 0.795468676099166, -0.20703743008122322, -0.7669852697397954, -0.8386041112098099, -0.7733390140609027, 0.02750409597821868, -0.17969036989297127, 0.058823925433351576, -0.8676133160113109, -0.9175599534330612, 0.889505367392021, -0.9853167583079805],
			[-0.16989431299243973, -0.7347134851548618, 0.9327318042921182, 0.3230112789285098, -0.16927642707504953, -0.822547236705125, -0.529529272710545, 0.32892477566394085, 0.6533141785687375, -0.6558775105151851, 0.7731199538325177, -0.8677707034324782, 0.23105750935167624, 0.41086869864636144, -0.5061166079701116, 0.4768369706887641, -0.9919954508317455, 0.9208124371499191, 0.24104032852288615, -0.8311475528333987, 0.7739511507899883, -0.27412803993132684, -0.6897758019159519, 0.14827535455197083, 0.5864502176385229, -0.7003754380263123, -0.8457400808532141, 0.8964104124801291, 0.80433178689945, 0.055458921300764796, -0.8527892946917306, -0.03534437835666937, -0.21487091684977733, 0.8554563396367274, 0.8824096861717932, 0.8990942840852139, 0.24652145899600475, -0.13053130744594316, 0.12760719716264693, 0.28046449746192303, 0.36156001505945995, 0.47960846201282803, 0.25498597653246374, 0.9916786879713626, -0.19856781379114793, -0.7844468317926053, 0.8727249081423696, 0.8297434133391759, -0.048066023415215486, 0.21339631894504718, -0.06812272424629917, -0.603137047163691, 0.7671670091549894, 0.2470002913732423, -0.969427467997749, 0.14026309317003793, -0.263251591181354, 0.3069413685602256, 0.1835051611760039, -0.7262780487161526, -0.13239339415424256, 0.27606128092597704, -0.23560407082930412, -0.6232065712195982, -0.7548790054939883, 1.0758509378716312, -0.6712293304092192, -0.34920154923088065, 0.2971555301707788, 0.4649241703752386, 0.5816402811878834, 0.23514942270675881, -0.4519379733879643, 0.48302090189504726, 0.27127502485172916, 0.5201838877271174, 0.08728606023332679, -0.7461399209612266, -0.4161180708471263, 0.5128651610435946, -0.1342921395820722, -0.2572331485465772, 0.4614952903326608, -0.9326818169895574, -0.24804572406005354, -0.6589042512174141, 0.476724854599456, -0.869457235690381, 0.4044181263040643, -0.4393778034637867, -0.428615808468057, -0.33817592539362157, -0.018302335541362437, -0.48669336462483626, 0.3543567952415079, -0.31227137721357995, 0.256868135705188, -0.313640622969821, -0.12954440763753838, 0.044099625339518396, -0.7703008488075866, 1.056658725547516, 0.09160731800242372, 0.7110930847463517, -0.3582665289774027, -0.672337141179019, -1.1780619639553243, -0.8577227159590899, -0.6718477844156003, 0.9573120994881742, 0.39066422453899885, -0.8380893799756861, 0.687435494075002, 0.3920403583128853, 0.6199125447710054, 0.9680299532235839, 0.942142059515368, 0.29509869542947265, 1.0566789903094953, 0.1282056073564099, 0.9738865445951219, 0.06450813103962198, -1.0056994865416633, 0.04812039383617074, 0.3945677351041883, -0.06134529862517056, 0.6881185428317119, 0.6344177956800208, -0.3775210699701591, 0.48514582281032825, -1.3830441190354692, -1.0349574759833062, -1.3886082770594106, -0.9676498455537004, -1.649106071337561, -0.1125400332207769, 0.7440222712786363, 1.07778123142604, -0.5918357677830018, 0.07037528340518172, -0.3950479227492485, 0.49452459358840395, 0.1821601941720008, 0.1714841656927828, -0.20970921302455287, 0.4879911914062835, -0.2714125628539631, -0.09277272565882966, 0.14207735848352757, -0.7368610015783601, -1.7707508550895572, -0.46673322832069647, 0.08634787423433468, 2.0847950802146795, 1.5555303680326722, 3.556261583314299, 1.177130056028299, 0.636922525502924, -0.4750256011428739, -0.30596840156135363, 0.6936180584162823, -0.11306517557609634, -1.2923235397251063, -1.276019776240506, -1.0868617468450523, 0.48283111201344775, 0.2617624829434172, 0.9447776505992822, 0.2117003855113988, -0.05910466084946986, 0.2879691002668251, 0.13861061093110166, -0.3098714023950199, -0.37735308713781274, -0.3613236173972872, 0.8338074222141447, -0.31289916551417724, -0.9864254118540499, -1.6156514715371937, 0.6648964727599675, 1.7896494757095027, 0.24961707955568674, 0.9859135920923656, 2.6547660474423673, 2.137681755252506, 0.9493682815206693, -0.6669697247828733, -1.269181543383768, -1.6890486104831075, -1.2213891617634054, -3.7380771396153767, -3.0365102750775357, -2.5501667932072998, -1.6529903543200466, -0.16077624155605494, 0.14355751498118874, -0.11120048248893166, -0.6198525878473284, 0.4342761860585498, -0.2506448581007317, 0.3631178071171514, -0.45256926165740424, 1.4704599786700336, 0.6273668419528557, -0.3090562164172649, -0.5898545888343323, 0.44818659261118887, 0.2137907207213247, 1.1925483357530346, 1.3231703588820485, 1.2777028124334366, 1.4181907807774836, 0.5984972069486915, -0.7817350991046201, -0.009035923588472243, -2.0984099997270453, -1.0370151547259057, 0.02145341971635985, -1.3657154890939254, -4.298810726422402, -3.2081629023542604, -3.655996435322956, 0.49046696909652693, -0.5373193436423279, -0.7348912317873899, -0.939648840139347, 0.9888931375577894, 0.6867128078563437, -0.3921435607146158, 1.5971248272122558, 0.6471265378551844, 2.499577660035043, 1.324399960697794, -0.8171159712348974, 1.457641696201713, 1.6065748844266623, -0.08555530085648651, 0.1637042471492211, -1.076433421639555, -0.5069233019866254, -0.5913640025717654, 0.5389857610945089, -0.7808368008726445, -0.4016283726966044, 0.08155230675452964, 0.14811796968845697, -0.02871809514540438, -3.0335642549992174, -3.4417195328173857, -2.5993514498636814, -0.7548812962185303, 0.7963613717089947, 0.9776507295880728, -0.9567689719144972, 0.22423320474647745, 0.43254435223694826, 0.8047699273727557, 1.7821443892653899, 1.6390003091648406, 0.7192622217944298, 0.31837971727420866, 0.44547464378293034, 0.8007444366065368, -0.14196638842470685, -2.6051970327130327, -2.78568756616972, -1.981295878983128, -0.8697195096869703, 0.8973870179751099, 0.44644451780836936, 1.6605613082062654, 3.733098430661796, 2.374338924061653, 2.606367696263803, -0.44128774736176385, -1.9850867343063936, -2.481441957304891, -1.2168838585080306, 0.7227439118720327, -0.9244431801952646, 0.9363989878888406, -0.5666428110690491, 0.9454980307184174, 0.4290634432047156, -0.21901815818755602, 0.28106829071517436, -0.009085913911956891, 0.964442514183273, -0.30065555287997625, 0.1700587382339787, -0.2703081591383464, -1.48464621798906, -1.7786171301908962, -3.4038049047545478, -1.1347827805601487, 0.8081331436351294, 0.6606254066544266, 2.7622604576594503, 2.7106333490293513, 4.968539580607754, 5.487781344786328, 3.7232729094680943, 2.217779237006279, 0.14575330022299202, -1.2646343567057823, 0.12442687712350192, -1.034181755112821, -0.2892187009467034, -0.6972321574226492, 0.4891762160471602, -0.617609582207757, -0.8146097670865838, -0.8136792687760698, -0.40542003218353817, -0.750099654583642, -0.46777881112049413, -0.406340588864509, -1.4684626045639058, -1.9183132188404404, -1.1404162828385451, -4.050404232989506, -2.271085739014309, 0.08900769545600666, 1.1536782820533786, 2.7110656479448987, 2.475145272273749, 2.9797208613141257, 4.0214556905528465, 4.560151313671939, 4.2392585526429665, 2.5516950971843486, 1.575482059830038, 0.6432310292831611, 0.06026850902619994, -0.5631559600510562, -0.9388853119869044, 0.4492754880471539, 0.7608404912906228, -0.12892956322338822, -0.0378157917309128, 0.6102166661874696, 1.200678601679325, -1.253681342596162, -1.9609452370492557, -2.1899731384277703, -0.8900282349585139, -3.78843856304093, -2.704747675862022, -1.8393264038770933, 0.06917630762002862, 1.8883563308042, 3.0687373394347404, 1.083767634808586, 1.6811514785994357, 2.376090998188764, 2.5443906336622906, 3.29845043308666, 3.0771211124378532, 3.3022657009770406, 1.0678758539576632, 0.4130890943634087, -0.6875174535156263, -0.3745337447986156, -0.7500310602164187, -0.2695364822935349, 0.7402135407301977, -0.4981899820430238, 0.6721837285414827, -0.3293327689203683, -0.35389765623247127, -1.3858051263833713, -0.3215040846050891, -1.4936960993930306, -1.421226221150286, -2.571621926310047, -0.3345108119276754, 1.9845348088707222, 2.454110053118333, 2.645189329741793, 2.110221070802259, 2.0421607145213683, 1.7378146100595757, 0.12578297065709315, -0.3041739663283945, -0.8176564372017353, 1.153305932967588, 0.47125727474389, 1.827266425081823, 0.9588421538358739, 0.052030800140880205, 0.7717641606594494, 0.2347866672713175, 0.33928026856302684, 0.6098339442602119, 0.03809163556216255, 0.44235728723309, -0.4342325184422653, -0.5128361549384253, 0.4445740747519597, 0.5062815570265267, -0.7404141499804257, -2.0698027943197914, -0.9700159775310211, -0.4552935857709648, 0.500527165973492, 0.9270199043130868, 1.0684513665047777, 0.5865021504985009, 1.105596706621841, 2.028058687541272, -0.5331767881841362, -3.4972098252488624, -2.10699446552812, -1.285942475766242, -0.22724800485912136, -0.20441740670032124, 0.39826443968876923, 1.1556249108133356, 0.1741794955859319, -0.554550968656872, 0.7741109501051963, 0.8664258026410856, 0.9019961340811354, -0.24192990186300012, -0.5549901215262253, -0.63148626059992, 1.3627224607944952, 1.007828607181151, 2.7630696114568227, 0.8804978227013993, -1.481292095369822, -1.459957091905972, 0.814293020759157, 3.235169141993925, 3.7809770585574767, 3.1259905083986372, 2.1106734636498534, 1.3892634936879387, 0.010331151601626565, -2.2243947104922013, -1.1372685799787166, -0.8836287083964759, 0.053649173869580055, -0.6751598449889088, -0.1728541209996841, 1.0556030224109265, -0.09131749779211294, -0.185848957774224, -0.0932869558199605, 0.7187907197296259, -0.105389411234386, 0.4304221712994742, -0.15556027552244886, 0.6549335883167577, 0.7649586507462603, 1.6119992778954642, 3.8321522757209023, 3.563253442663754, 2.682489509235606, 3.444442953325708, 3.905298267823329, 3.672293135536002, 4.534654081360759, 4.365500604274002, 3.02137693588119, 3.3323143756150047, 0.9532001788577389, -1.7289779538918133, -1.965663521867512, 0.28499099323410215, -0.5120677973863731, 0.31967608679890835, 0.00940376533324798, -0.30784379719302973, 0.20555695492208997, 0.589029924466887, -0.17140589660115468, 0.3630701264739411, -0.9883335504608172, 0.8684909459965592, -0.3384098688817326, 1.3895847650377133, 1.579694251586295, -0.13175253085718105, 1.5086961945033788, 2.3073344402026255, 3.294736579852798, 4.073107009189044, 5.077656453775194, 4.246367875694078, 4.076384081968651, 2.5499974048592238, 2.7663003171071967, 1.7186108930457027, -0.1523401420084045, -2.1053919418065417, -2.155439647383017, -0.6044659822625927, 0.9005348340642632, -0.2724240695961781, 1.0184663113933983, 0.916119959519324, -0.7264683100255258, -0.6909337118463232, -0.35119335624628345, 0.8632396787004231, 0.061793689672275484, 1.041927138311456, 0.027506251858051695, 0.6934950055307261, 0.11391532081654324, -1.3669839969674609, 0.7182549219607656, 1.6961701179261839, 4.498797253639756, 5.023402295249424, 4.283556790521425, 1.436033015600901, -0.36527896879561234, 1.8295259126640466, 0.3508898039745961, 0.49080658335584415, 1.7008783695004956, -0.393750312728219, -2.9561221889261557, -1.5507822793462922, 0.15716735321367034, 0.5439128497874833, 1.2426059716831004, 0.740171148073908, -0.30622610366036584, 0.6891030999383427, 0.8604476744419416, 0.9780399382552325, -0.48405222503346995, 0.0986613991239117, -0.6033825417916677, -0.19594521399023473, -0.9175274009941007, -1.205606558239745, 0.1424946832129956, 0.8722969499783872, 1.373094429498804, 1.0850266578707575, 1.7304986826863316, 0.4577838387950367, -0.1355557824272878, 1.4130140861512415, 0.08351943831211549, -0.9456963890123052, -0.5736730750245252, -1.1633450377403796, -1.545078425211551, -0.9305582300329971, 1.2067686793887527, 0.810830716450941, 0.018864331555242864, 0.2968585671333619, 0.10203217203063335, 0.9065266212872396, 0.44614653943267557, -0.8785196906767134, -0.009913636426236492, 0.5948293478081332, -0.28962233284813294, 1.104303277533843, -0.07188741548114748, -1.1237325958980064, -0.6783718865798455, -0.7349739471768602, -0.680992000288044, -2.0029653432834116, -2.0487775462390805, -1.6958256486124499, -0.46672910996779926, 1.2851321810731509, 0.7675716060671859, -0.28625616271921517, -0.6517874599360233, -1.7762172870260655, -0.4963763189610165, 1.3660783435483688, 1.1899704652914456, -0.09599486411694545, -0.8116927451276869, 0.5431224775150658, -0.5514805235798618, -0.833365316121442, 0.9132043866974326, -0.046044917438992035, 0.2835138960356795, -0.6481089930907211, 0.48183716798454046, 1.454379269915325, 1.6906045666829506, 1.6010115160279557, -1.225058862653709, 0.3324682630020651, -0.2574074435678393, -1.2755155705204122, -2.3523823900779206, -1.9471554279736172, 0.6858638934440018, 0.41212181201905135, 0.9482273055386717, -0.3865842256725159, -1.998487326787247, -2.2266390106426655, 1.292316123923845, 2.0072125426241882, -0.5431436024070341, -0.038718772443062904, -0.41023028808010853, -0.3242858229541695, -0.2866573498246694, -0.39940899405118335, -0.6942419549904812, 0.5427762705175256, -0.7969938603459054, 0.4966346321955327, 0.14874304278498213, 0.29720117142603664, 1.8191439449955578, 1.3147438379085314, 1.5501145208295104, -0.06070622514292488, -1.276500815813828, -0.5857652913855416, 1.3280264401740363, -0.8178642559015821, -0.7665923904601983, -0.33511440326971154, -1.674042951896311, -1.7501067847959078, 0.6449588234245747, 0.669338964395289, 2.2060120630199944, 0.22444211239652023, 0.5296025241801627, 0.009780198378726391, -0.2414981138698483, -0.5464655900793892, 0.5330769872998963, 0.08640014244913452, -0.6263894132524594, -0.7968211780653123, -0.9567408016851012, -0.5078055080348401, -0.7386514525835832, 0.5916070005096088, 0.1340161014461535, 0.5293799790093217, -0.02173396967110776, -0.334034858297334, -2.239369744882631, 0.5256317616913302, 2.0180513030257345, 0.4156251600466002, 1.1643037005500512, 1.8152346602911904, 0.83977988505208, 0.9376610441975168, 2.634402062450531, 2.1990859129081097, 1.2969353644613106, 0.005953476353256875, 0.5592973465805048, -0.855822337569861, -0.012414777436065073, -0.2533918266285465, -0.10321649581787837, -0.36509073095205036, 0.7245647899830998, 0.9580603757486177, 0.6934206475166866, 0.6364507738240367, 0.6686644304984973, -1.249216859886378, -1.0620745347494571, -0.59022081735944, -1.3618019291301284, -0.3413721261150547, -1.13786880037827, 0.45270017118962985, -0.5184619791599824, -0.5352182122658294, 0.9400015367419122, 0.7949140080455304, 1.1614901114436256, 0.08984554551848897, 0.6331547113332048, 0.7066292490724341, 0.9789453633050662, -1.0752285873796787, 0.004806604312552469, -0.06299284616765871, 0.35850432911652574, 0.7167928581976164, -0.9450359185649003, -0.08401783398960339, -0.8073054751222255, 0.3093552086941833, 0.8895898600332885, 0.18539082918257524, 0.8728675164039007, -1.1293980348150665, -0.27539784920108357, -0.9577562837293164, -1.7138474084572595, -1.7739373066579518, 0.14092803736811063, -0.4746628155208195, -1.7064613790623302, -0.8113405557251236, -1.2389220668756322, -0.7813645715831854, 0.24055569748073113, 0.0964695305074191, 0.3122455132597241, 0.18617044176460107, -0.6344233612053476, 0.8239098401027289, 0.2609732069842577, -0.44816160509267783, 0.6795202348427478, -0.2508383173339503, 0.6835165941914818, 0.5555389667947215, -0.20507825366290877, 0.40440513324490857, -0.2604156650243854, 0.8934884361974249, 0.8756531149932671, -0.19111790716940913, 0.20280686459896202, 0.24222560814121744, 0.02050255238370584, 0.5440071571648363, -0.5022305781820177, -0.986594401526288, 0.4432868595176708, 0.13321209440440632, -1.4000767702290797, -0.9732247465739967, 0.9338051776391725, -0.19755702602423597, 0.012249082960229, -0.2929186825612929, -0.9336488333222982, -0.44614115766469264, -0.7681762164596441, -0.33051414174892824, 0.378629440940502, -0.7285819580272532, 0.42811158674583316, -0.5443459319536355, 0.09970021281423147, -0.7644871094190737, 0.4386771123441866, -0.05299952700159505, 0.7029233210809207, 0.4935758410830129, -0.8823842016495065, 0.4569535351997005, -0.20428757307397039, 0.5862584306686403, -0.5259080547491329, 0.6357154798934185, -0.952337324748545, 0.033934387496595185, -0.5252845897297642, -0.7975519584034481, -0.8388225570823127, 0.376628336954965, -0.39186885090290025, -0.13428245188769372, -0.48252621186683164, -0.20133893677187453, 0.2321013749587908, 0.6845479421926988, 0.6225217632193818, 0.46613517739686783, 0.7453982042410017, -0.20772862279249793],
			[0.7134891462767787, 0.319299480776575, 0.5779737778589213, 0.5537225378414616, -0.32896557916283786, 0.06893208235340387, -0.32173048341304655, -0.19809514968092046, 0.0022563191475786226, -0.10070834498514492, 0.4294419937273153, 0.7006116176555572, 0.389341652858101, -0.693297535847834, 0.13946273087163547, 0.8306281355389903, -0.07952307263452951, 0.7193704280496425, -0.22715954932800964, -0.3085147331778302, 0.820153085071071, -0.6344915342599036, -0.958180483983468, 0.4982935379763993, 0.4675076019678639, 0.04392421385298961, 0.38454307563618917, 0.17750016052632311, -0.6003250883351035, 0.6837612260931292, 0.7141359446297431, -0.52399750053856, -0.795752765953265, -0.22699421251066898, -0.25779958829913197, -0.1616031847389272, 0.8108395673236134, -0.7938254241665985, -0.7000914628210622, -0.644371630312193, 0.9345141662162733, -0.33089543714528785, 0.39118865640472106, 0.604709285122872, -0.26094334965866817, -0.9398824004997665, 0.420348167781492, 0.8028605770899611, -0.8433832460797213, -0.3198278790523825, -0.14947767568017367, -0.6414334567104336, 0.7678827377447366, -0.8759031888967996, 0.5052462043240991, -0.9769747725382869, -0.9615145263200677, 0.4537195526502611, 0.5545812770823106, 0.05221652449390346, 0.13785381797996843, -0.0023477337072281804, 0.7592867780523743, -0.5911807619371671, 0.21059357311174043, -0.19393934797801535, 0.49287365936657723, -0.19480442384474728, -0.35757788056319234, 0.43919435626525155, -0.02956313568064055, -0.41511603037845823, -0.4272550973203177, 0.6663895032938331, 0.31249246840853445, -0.1356668362451877, 0.34865699953899093, 0.7883293441304552, -0.6105438012216591, -0.12379431344092873, -0.44916282808361624, -0.939269410620845, -0.5393094956956443, -0.4048925909237231, -0.7749042910410049, 0.5037764465378447, 0.7136355081605321, -0.8103474812257575, -0.39274266243738276, -0.9896534445388153, -0.46895248469472156, 0.06565482705086807, 1.1117766709853125, 1.0005286723828026, 1.4455480277152, 1.9282618891450798, 0.37246848581524966, 1.0268281875435048, 1.0081805597440365, -0.3823517544415796, 1.1788468921008561, -0.0535211050060668, 1.035475007892313, 0.29377465805730707, -0.31356600943503027, -0.9459966757009198, -0.541013748591282, 0.6304297022756417, -0.07904191005692768, 0.388646663358972, 0.9036361718152243, 0.42863845763112574, 0.0593227770879059, 0.3451377427231499, -0.12973748858284792, 0.06906442372706315, 0.8949739911129938, -0.7799968000113875, -0.02792729889932731, 0.7330966655172008, 1.0806824530937782, 1.4598887725322411, 2.839848054775853, 3.703951805467289, 3.1962442107305513, 1.1474262615178312, 1.0005818308416208, -0.0002332836303301204, 1.9540033097144913, 2.659212562381945, 3.6446437465484545, 1.9592432777807498, -0.0962468848841348, 0.7337782969685224, -0.5196176758353219, -0.11424639964590544, -0.20087648483935405, -0.9006503435505884, 0.016824030159718152, -0.9265919753183218, -0.48586063594383466, -0.10366267518400463, 0.6581003436261931, 0.7091470572205312, -0.14034252976219894, 1.174358100940492, 1.7589375643261012, 2.361225881879081, 3.200190882288055, 4.376819669108865, 4.002655738046702, 2.832617037168247, 2.8206800566568573, 1.1886515101122201, 0.052728711659505066, 0.2695239353322643, 2.771897946590113, 3.1969360598420398, 3.698146001310532, 2.3348428990684678, 0.7675326932584104, -0.7220747514774888, -1.5068709319287845, -0.9114112607771404, -0.9997120642541256, 0.05525508080779658, -0.5653858051654286, 0.791043111891486, 0.29693471989403486, 0.47856592945967824, -0.2599721507625642, -0.1954898650065419, -0.7879456498788201, -0.056826895120071205, 0.8239766105386446, 1.797975954540543, 3.804860075988039, 3.601528942572263, 1.6138581867530044, 2.3958161810647, 2.6751797027402957, 3.1174499533799582, 2.5842492069507785, 0.7020922420387925, 1.1928558691812468, 0.6849467317107547, 3.2889163897614595, 3.335890892769097, 1.1269704834118324, -0.3991239275539991, -2.6532465839998705, -1.5497805465459775, -0.40758703593095946, 0.1253969500778995, 0.3637717053228797, -0.8792923443734821, 0.6912201367807471, -0.6850066187396631, 0.5422987422046232, 0.763664560535296, -0.7396570641292534, 1.282526004721425, 1.2918422848430613, 2.0972167325854736, 1.2095590526049331, 1.5718865275076404, 1.1861254042211966, 3.0292262790548152, 2.93829056712899, 4.174186579869936, 4.358314912447776, 2.6531945867370443, 1.8833944013416466, -1.0320136702571794, -1.197690289643547, 1.6321983779340776, 0.3972815140313282, -0.966589457149708, -2.4656785209792176, -2.2003545214658358, -2.827903847112844, -0.6237654189842293, 0.7464798610503312, 0.027794644226725593, 0.1510004940443479, 0.1463023445988445, 0.8672487215951028, -0.24100824421331832, -0.45461035641846154, -0.9816109949268937, 0.8414513247355738, 0.9934963907459416, 1.322435762879614, 2.5408789554525253, 3.46945684591022, 2.004455193360587, 0.47937929779966476, -0.8799172313083307, 1.3270159915528514, 1.9972163327739954, 3.377895007752386, 0.8735132421442652, -0.2398361091364409, 1.366796588350422, -0.05828865658689271, -1.0200282997444614, -3.3824110323075947, -2.145887828614607, -1.3137781701301383, -0.19751808657053574, 0.7108496294313116, -0.4960899544953165, 0.3225617528368554, 0.7455053835471221, 0.5564741957712973, 0.7425639087642383, 0.01691614241400443, -0.9793401516732437, 1.186882084016009, 2.8297564146785965, 0.3935846760993957, 0.20093836777636856, 2.326463572257959, -0.4424798476382528, -1.7560976743964114, -1.7809885708099973, 0.3179627714702186, 2.8565726973201473, 2.368148975415459, 3.0290668883604277, 0.6791792475634487, 1.7612451565142777, -1.5647904949045979, -1.5767709790554023, -2.1157510379379554, -2.963166475735397, -0.9656217368332958, 0.23565188427606745, 0.01719563079435777, 0.2939080174108826, -0.0526350749568234, 0.8807962256047603, 0.6172749473457246, -1.0015291747767778, 0.14016848840082757, -0.5086421742545625, 0.5359477474732106, 0.4040666568159486, -0.7819802586992743, -3.0204536733900884, -3.2101264545697394, -5.873755015849231, -6.118567677448942, -4.217919584600989, -3.47932504239808, 0.06470148020197752, 0.5776279657028343, 3.749683385367194, 3.6223392444604166, 1.247577997722612, -0.9616458975453824, -3.6488955821422575, -3.055164502145775, -1.9324630847485305, -0.9953892408724511, 0.39572833648754835, 0.692491163769293, -0.4177416995420013, -0.7992652319838962, -0.43245122180414874, -0.1449932489625554, 0.20136740634174388, -1.2880996443757249, -0.13376391404448498, 0.4634234351841611, -1.1000443298728826, -3.1926074953958317, -3.8855980515794144, -5.868171291273257, -5.66699161860999, -7.896791147250474, -8.672450646753674, -4.547649680477754, -0.392063852160636, -0.5352285456026662, -0.27570431713922916, 4.181507511654774, 2.6977438954129225, 0.17229963767181714, -3.1248576669088797, -2.1390539454850552, -1.488592577102165, -1.418879267879445, -0.7793104537245055, -0.7629655825493016, -0.23692262716067128, 0.5828975558801606, 0.9067355089331515, 0.18883816033595613, -0.44657644374319794, 0.8338278766569456, -0.03398578001606563, -1.3897460956244745, -2.204715321212141, -3.4925587668566997, -5.925043741904756, -6.418729348245805, -6.527234205401027, -6.169188668511935, -8.57021812371294, -5.961928155387636, -4.279577834496555, -4.015210626776281, -1.6077616095280258, 0.8552277245875141, 0.8617842264902866, -1.8023939429782418, -2.278158873952987, -1.178638064456063, -1.1633415935424527, -0.30522817626488785, -0.2720335177713309, 0.5763613591577805, 1.0196462754600986, 0.19446557178638058, 0.8332547030388446, 0.8019348577722143, 0.8080083114917639, -0.7836382316483845, -2.7515119412255826, -3.790642031076973, -3.654172155674103, -3.6252594737665413, -6.08987484445708, -5.421478660414527, -7.368058200745835, -7.050687104046881, -4.9281289451149615, -5.244838327186211, -5.01138890061009, -5.49770429395365, -3.730730423825989, -0.3747797543186462, -1.0970971260715328, -0.6523934872402637, -0.8484656728873943, 0.270206021952673, -1.112329268046704, 0.019954916668184768, 1.0346047716235074, 1.326639888147358, 0.8779626933237736, -0.4781689340564513, 0.4017082100689229, 0.5329869292650358, -0.6824169914541741, -0.5943925512109501, -1.0016402006404683, -4.212331752345393, -2.18418022303109, -2.0507775316175003, -3.963438135550016, -5.827962526210411, -6.639409046034664, -4.857711201398912, -2.1542979431829496, -5.067836076224742, -6.202521833250141, -4.3531587874045385, -5.45569540168193, -0.7465216740433174, 0.22997877472567488, 0.7346615790334833, 0.7342842528349872, 0.40133382267090606, -0.3498091540575991, -0.025465516609563702, -0.13084051194717794, 0.5371782579021485, 0.6724110230576511, 0.4604472924156137, -0.15729784589372375, -0.24022247069083047, 0.10568388914331107, -0.01201887669492855, -0.6123643003964699, -1.3374293898079972, -0.8898151967211245, -0.28809442547115616, -3.024384208365121, -2.289058883358692, -3.0393964167065564, -5.117216825752057, -3.94898762721285, -5.42110323958883, -4.447264367310998, -4.512274231886081, -4.211811782658873, -2.1478258088141398, -1.1011496607765376, -0.9392994410229595, 0.6578714007886294, 0.04843915491178117, -0.20465375378378717, -0.21675183274176388, 1.4613135710851732, 0.7294450432638454, 0.4642120930685956, 0.9492306578870933, -0.5948685415077253, 0.8518684333485788, 0.02769980247884506, 1.326053643853957, -0.8138997076784207, 1.1083502916881776, -0.7603178025402524, -1.326736664437088, -0.5862478457900179, 0.008786730179274968, -3.702174115096698, -3.580351258504489, -3.996906384269517, -4.2334414002987755, -4.891721288772962, -5.048509661698386, -4.9079440000542505, -0.5394614166540606, 0.1284132346942955, 0.5645304195621516, 1.6835382342300866, 1.4915581986491093, -0.16316496470325859, 0.9889642351539168, 2.3000027426913507, 0.0831865756867507, 0.5284721107585832, -0.6787817604939077, 0.8195663627944554, 0.8361681836612228, 0.596874851338213, 1.4575738931671756, 0.8153608640587793, 1.3572259429388505, 1.307338918111972, -1.8818087031746062, 0.5734633331689812, -1.1486150983967347, -1.7307871644831228, -2.6731691141810017, -2.023308117219286, -1.9225847852870577, -1.81397800700211, -4.076924804732953, -4.546750228857859, -0.7940789989434471, 0.24398126456784258, -0.03176265634308601, 0.9730856013270293, 0.18104970722222893, -0.2871657683273751, 0.11151024650048878, 1.0038886880434728, -0.11958032110447651, 0.5079246751298669, 0.7355645439972611, 0.4414679644471935, 0.8830508401089843, 0.7134252677010837, 0.9021860642344884, 1.676652547906047, 2.595242509058529, 0.37377161283498916, -0.7803579060143645, -1.0935956541837863, 1.2560901581886745, 2.146306214992159, 3.1563796434100126, 2.3397924696585433, 2.0859935755414893, -1.0382579559707041, -2.1947399520092765, -2.7258170342590353, -2.7209681002434727, -1.0904716857276031, -0.5169887737677022, 1.8336829601533904, 1.418137591604821, 1.1012335391680748, 1.3101850467024345, 2.208007231752284, 0.9757031568320711, 0.3417551013041995, -0.49425520353869556, 0.26454813240858677, -0.8154943779628158, -0.12601033144095997, 1.5196871301705337, 1.6015358386074168, 1.7144033143273016, -0.2607892945661936, 0.2353603563503638, 0.25179632513840267, 4.176897009526288, 2.698422891471423, 2.623492738576961, 2.6080326135889975, 1.2725112560794245, -0.4398023294587047, -0.23642712586760226, -0.2517488509199162, -0.47959109722317067, -0.6452704788887573, 1.8932989436418843, 0.8397446305150182, 1.949871694111569, 0.7027144124674856, 1.2686550340363068, 0.6596473664940385, 0.08766673364364659, -0.2551438614296447, -0.798276470263692, 0.08036251068466838, 0.6597692362772503, 0.09494346055473547, 0.7306799429736388, 2.0825487441741046, 3.1239937374102866, 1.1566656975458134, 2.223521500795503, 2.452243697741174, 1.9653868141389408, 3.7734630526692707, 2.8061602255406757, 2.8558168319049675, 0.040907123769746395, 2.0612726693733183, 2.942404863253877, 0.5853188734432583, 1.9662080047669928, 2.3738349862723958, 3.0614015401889345, 3.1517009056079996, 2.4200574620100643, -0.12845883094551186, 1.5125951171465608, 0.904303440193744, -0.9529748163046382, -0.9199495986868054, -0.5510198606677457, 0.5175669057953378, 0.4898948231100397, 1.0004046331923853, 0.7382236995291993, 1.6829708651564481, 1.4269023331380442, 0.7522537902157476, 2.697340407463639, 4.4238808472716, 3.619024950873175, 2.765167131612619, 1.6927664071014414, 2.12263959064351, 0.5842139899351082, -0.028381128950723627, 1.0882264337042524, 2.497004106117586, 3.84886609475838, 3.6476790999408086, 2.8586122169323946, 1.5155626817784527, 3.2129687562957785, 3.1122688486902637, 1.0945123949477096, -0.17914952138938953, 0.17089354036256635, 0.11121877291630522, 0.16137922854121323, -0.4290470299291598, 0.08832381233719191, -0.3391711785256427, 0.5912817643357131, 1.7069295474859947, 1.92580891759789, 0.1967818258983891, -0.19446387533350953, 4.9407241234106065, 2.8729382423090795, 0.9619809351758218, 0.060092616076481524, 0.76067049808775, 2.2045460731946913, 1.5593544990939092, 3.3444363202567224, 2.807491872857, 1.4881070802747254, 2.0324469809262053, 1.7435684225391648, 3.5470810966974216, 2.4686900583177533, 2.6479384608747374, -0.2216997589403617, 0.7621080208068302, -0.7868911584392799, -0.9144454581728794, -0.2870053546705216, 0.9430970335645914, 0.5452252990292878, -0.7779500932632583, -0.2842106374104718, 0.5619985128840773, 1.3454970142947618, 0.2538101650709117, -1.198516350361422, 0.2515684521205386, 0.4247912845514128, 1.122041138474141, 1.4134188541415593, 0.7519818124886172, 0.3220010258094496, 1.0467324230728883, 0.13171548774780126, 0.5182465990338798, 0.8860795486142774, 1.5211496866498921, 1.6422256228739172, -0.20664464657300757, 1.9124294349996358, 1.2584055294835346, 1.8479228404928845, 1.25009255885808, 0.41005394674016166, -0.8956522002663867, 0.08049159069217726, 0.9872523483673481, 0.22749564894703322, 0.5690250099629011, 0.6100970045932239, 1.3238527085988858, 0.31778519332044786, -1.0771205102047952, -0.27216677919718824, -1.8326610562742351, 0.6331926416407156, 1.0004749652192126, 0.16573052211739933, -1.0864103065579929, -0.6193423329177716, -0.6047804144580582, 0.49534088230451784, 1.2572797015819335, 1.450808149233824, -1.226063372255012, -1.0834187395027355, 0.8256516325136556, 0.5228120010750492, 0.03906365910201601, 0.10675206035726666, -0.30903449805854427, -0.14644461423744246, -0.00864308804701297, 0.72737403097238, -0.7088574108414627, 0.6074245475422919, -0.19961971094304548, 0.35037210778843336, -0.21123991220240332, 0.693172739265524, 0.6115468744438631, -0.5195739702969404, -0.6031118215499395, 0.8960655630007143, 0.07755354926797706, -0.43702881139280864, -0.36525919864462175, 1.313274468831025, 0.9238355332028957, 0.4306759280147248, -0.18382438407638205, 0.5253052854225062, -0.4896707225059824, -0.501491744773239, -0.18065989959992879, 0.49779611669154183, -0.8251174828444403, 0.33689745566713275, -0.8983712755210355, -0.3539512188789431, 0.055868350511629306, -0.39524326380419694, 0.02532226727540099, 0.587018018087841, 0.8125020564716561, 0.5634817881628349, -0.664943923463559, 0.12479895052372926, -0.22287438254572978, -0.6296815076771681, -0.05482496073612785, -0.10037370546386484, -0.06005494093478842, 0.06334385893170986, -0.4920921638025348, 0.0941899454604389, 0.4770897278424727, -0.46268725481023854, -0.4846284063931436, 0.7506383789530936, -0.34837580601960694, 0.9462378716783799, 0.5808902743561102, -0.47220243467082884, 0.25882820128341477, 0.35323269627902665, 0.9154829915842, 0.8740836903230642, 0.5308813687755167, -0.408990763403549, 0.34779838176187683, 0.9835646401901532, -0.027258114993903515, 0.06146813065352008, -0.9629588128254891, 0.26390341170241527, 0.44636848228624704, -0.9537007538305873, 0.3627591306613205, 0.23787145954625888, -0.6596328936648823, 0.24557999948399756, -0.969774075027954, 0.09749986305526548, -0.8934108000234784, -0.31396011444234695, 0.9533320967546608, -0.369532110731317, 0.9234858420731951, 0.5575345473879874, 0.6159985062570712, -0.6909565496790213, 0.5790708393660573, -0.8602190050718961, -0.46488150999346844, -0.6252130322255467, 0.18504905342840017],
			[-0.9034608117742322, 0.1476514423947246, 0.9272833839501802, -0.28958677885188333, -0.8581781491737464, 0.10968846712609093, -0.1188297449586524, -0.2753585260321585, 0.26084102448671675, -0.07382761390681924, 0.9561369843330243, 0.4108229209523051, 0.48738502020541585, -0.5197133500571054, 0.4629195261226276, 0.6897433683743015, 0.7310504304270751, 0.5648686416355204, 0.9448616329450754, -0.6321601572786322, 0.4981046692913478, 0.37687876905461204, 0.5951952373840292, 0.35525007677688825, 0.20707773774568228, 0.5529789786716095, 0.8166231408784399, -0.7905213342774293, -0.5091910841674165, -0.8124570287632835, -0.7177736733125566, -0.773501842386676, -0.11618655010973633, 0.8267871179021875, -0.3137846448178401, 0.7288576097149253, -0.38013225254954874, 0.7896898355624297, 0.23756601794479662, 0.7450220210033001, -0.32919357066300015, 0.4333412183099144, 0.3007443448900995, 0.6360416125812288, 0.8166069959981364, 0.24028017377536537, -0.22578199512023395, -0.8327889651116491, -0.7157618233578025, 0.1859411362463943, -0.5427840862709412, -0.27190639034740993, 0.40960140884915, 0.7847550038034803, -0.03681059615732574, 0.35790734268345625, 0.2888637655385895, 0.4386808137064877, -0.054796125609939406, -0.6340317893676399, 0.6538862042029194, -0.6243043416317593, -0.2368299867953767, 0.31791694614441757, -0.8290644727520109, 0.37592462547296357, 0.043238311329590676, -0.39949542317772285, 0.5384358270888666, -1.250536130011918, -1.2341010380322759, 0.6602458416313824, 0.48421543253050664, 0.5541764420614124, 0.4585936738418141, 0.41244408278536365, 0.49241844751071184, 0.8675518986566082, 0.7773469727472716, 0.674507913161914, 0.3549500969181957, 0.18964079741097434, -0.5703121786589374, 0.9841061556901525, 0.9437144270521758, 0.888015974858972, 0.9800209757105453, 0.8448064934380458, 0.14992471318607234, -0.9886400464242103, -0.42479315437472437, 0.008096360487950198, -1.0144628512239253, -0.6780605281130906, -0.2543336345965899, -2.0635625058847493, -0.9487193499733552, -0.19077326068478068, -0.3594300662733077, 0.5504561973831587, -1.0907223399762522, -1.0365006947853141, 1.4809197575179018, 0.9675067366295755, 0.7801373023564833, 0.02008513632258603, -0.20399410159745748, 1.3150983148848727, -0.28072194852803045, 0.27441688157955424, 0.7089243373266026, 0.6520244306496488, -0.9358470421368592, 0.2994250031779302, -0.897275453012868, -0.8838158420603307, -0.5061399278970541, 0.10116200422664737, -0.9635935503922634, 0.3080349134801098, -1.3476239993679135, -2.397527524771234, -2.717790085829779, -2.8672525842619137, -1.070479481671347, -1.4915541745677245, 0.088454054262119, 1.6140149513198623, -0.27378132885863915, -0.006124344045517064, 0.09321379594279723, -0.022984323104082924, 1.4486478580191056, 0.5314471586144277, 1.1868389482972792, 0.7734270855512618, -0.15329847705953945, -0.15138945389634714, -0.6589503508892763, 0.6492766447129658, -0.1922217309925598, 0.4294347786702746, -0.5174231832605936, 0.619970052124977, 0.5120086768170445, -0.907644388227266, -0.3870817580604884, -0.8664372220488032, -1.9729473313581034, -2.816657968885781, -3.297662063673843, -3.4558839611050476, -2.694884904628479, -1.6862459593525918, -1.4057671028333982, -1.53198217912043, -0.93976585835264, -0.09525658004605365, -1.287832303512608, -0.22858008076003467, -0.186608729937466, 2.3361998669384745, 1.7630050750952144, 1.8869697773922909, 1.5838036997145122, 0.6357528548222924, -0.7348513733169368, 0.013367057811033022, 0.9727803176074366, 0.6307391353411642, 0.5131454079268347, 0.73457914366072, -0.527330539033098, 0.4231480675075342, -0.42032005352629775, -1.4732740280361045, -3.2389385441852916, -2.1855227510585276, -2.667777376150758, -0.8764793376492491, -2.940195058812339, -1.863309876466192, -1.6572121111034013, 0.13006971417564755, -0.4578845225212825, -1.8202307446790285, -0.8917021594377397, -0.191475408448105, 1.0777470732695291, 1.9991723844885858, 1.1894385179793379, 1.9776303284316556, 2.0683169656341454, -0.1798014388513522, -0.3196624162474742, 0.5882939241663, -0.8337981154138498, 0.3910590228371964, 0.696177934518058, 0.24514219666821627, -0.03920908923453923, -0.680988525538618, -0.006132558855682292, -1.9205837639527865, -1.4699567537480651, -2.1923222200613965, -2.3049588212824736, -2.090773960632274, 0.001972999165483178, -0.5713974668833962, 0.9850685733534031, -0.07613691108656663, -0.43025531590364596, 0.3359375246543018, 0.3500005338823576, -0.5354289658240469, 1.415596036473775, 2.0494321169669485, 0.2745902477314966, 2.2812961095190056, 1.4699500324453112, 1.171598741007744, 0.4407086161629624, -0.25697005821691565, 0.027180057819622405, 0.25509273774691127, 0.2520360513301254, -0.36175463960501736, -0.38769714895665447, -1.3019262291058316, -1.9890434736751927, -2.8126434883515623, -1.7056181163927653, -2.8393628522222985, -3.1499372518868, -2.0161515393770086, -0.7973852804961864, 0.7447592451898783, -0.2408701078063421, -1.791968847056752, -0.8541198985612745, -0.9201753561297236, 0.701760520322334, -1.7002826635597326, 0.7080891022509284, 1.1563879578024878, 2.0562921203775595, 3.4575468532053764, 2.8396356507606075, 1.2187248091769567, 0.631543396382077, -0.2649576575935606, 0.017703796191943066, 0.21883088879046353, 0.02080032237598375, 0.8566491692772324, 0.08339450519462967, 0.31533842910509, -2.3565565225391776, -1.7048398683114834, -1.7754666575581664, -1.576566152707819, -1.7388889456100647, -1.981461042134069, -1.5427129661818364, 1.0437323753355146, 0.17590819293512863, -1.9445215209892524, -3.1300503162043025, -1.581790223051803, -1.5359217633813662, -0.5630697830314176, 1.7697282239120002, 2.3946496590249646, 2.9054406108596114, 3.4966718232791956, 2.3179151966862697, 1.5426826483018985, 0.972202472680551, 0.23663091644403236, 0.3425130372132674, -0.0048193242057834595, 0.6622416930815533, -0.6625348691971912, 0.5259389459357557, -0.6657524012527646, -0.839645829844588, 0.2427421355906768, 2.199192607678432, 1.251162212280676, 0.642337242732934, 1.8289335700932792, 0.48343301567957137, 2.6023775998408007, 1.7131265826567492, -1.0935027270087727, -0.9160393967519946, -2.8614564138146457, -1.3983161842196636, -2.011335345606109, 1.5856755794908097, 2.314133497438277, 1.9761644609873557, 2.2034871459965637, 2.0364509615135975, 0.6722933657811401, -0.6857641673498011, -0.6445299320489166, 0.7790267177224321, -0.2603622496844946, 0.6764327097273601, 0.8978068173216586, 1.6113668946489874, 1.4235272192925694, 1.4795386041453036, 1.2095240194783623, 2.230506428825193, 2.2429661163001735, 3.8051090502103837, 3.2885955101481117, 2.950888766254994, 2.527394697976087, 3.0967459662932497, 1.3156856928726657, 0.5146979464158563, 0.07466637549003226, 0.15677340837013695, -0.9207643179158993, 0.20854733764479672, 0.6822629416531669, 1.440934515580956, 0.9096479512697297, 1.1370032154014151, 1.3351423155603692, -0.26690201685351184, -0.9225659798535263, -0.7654857035964153, -0.3365604253152883, -0.8161408031316761, -0.6631200563131606, 0.5418069646376801, 1.0675533419544316, 2.8029299735157354, 2.7963599297774753, 2.853484446715422, 4.240868390766471, 5.397634807371268, 4.53613165698303, 3.6349416304004256, 3.5818009699262734, 3.345585214540674, 1.1367434696126353, 0.22091954572694728, 0.5152843078609746, 0.8183902304957686, 0.32420052650310976, -0.20491689760270426, -0.6466721021593492, -0.19660067205295126, 2.005440127652283, -0.7020259682951098, -1.1045843728102567, 0.35097554086146715, 0.3822980873596285, 0.3692314126571432, -0.3012475306053264, 0.21078262923706992, -0.1435617274045952, 1.479607840499502, 0.9412256699638369, 1.0868559068832253, 3.545358770038875, 2.154154633882396, 3.554570352810957, 3.8639224721844903, 2.4764560617424327, 5.25920885595769, 3.3490436959125263, 2.6774326788761775, 1.7541655570581982, 1.8041592854361026, 1.0552875171222105, -0.3697492704345986, 0.17633246570921682, 0.9305988748210453, 0.8615700242878908, -0.2104883526272306, -0.8940402019181534, -1.5543337572764389, -0.8992593285522997, 0.32842080861122724, 0.5153117946639415, -0.502260008288652, 0.7972452922350985, 0.5124676452294992, 0.5859323656491809, -0.07866523308555913, 0.6776886987272847, 1.211118232846422, 0.16957843317815355, 1.3937991168683228, 1.516696110402763, 0.8891299552590456, 1.831706026793633, 3.3354763628401805, 2.506250741804713, 0.8988827916345153, 1.6943189054765804, 1.8716072936508246, -0.6461941560826303, -0.9725138076715446, 0.05794171141433313, 1.0913739510866998, 0.8479052141529271, 0.09227923593657389, -0.07913211976940199, -1.0227695982202345, -1.8744701774919723, -1.265121855592709, -0.36699108570514943, 0.14695477502740872, 0.6334402710975775, -0.7359315160112172, -0.42755610235279334, -0.16999684988599356, -0.09120771387718286, -0.7568037736223006, -1.1619313993132006, -1.2587397661187805, -0.7634464567931504, -0.26297178902029567, -0.6478706525701947, 1.5024948022229723, 0.7781907877343492, -0.6778116509619954, 1.7910115280415282, 1.495076889555844, 0.1693711265224518, -0.606692409807603, -1.6294329483953978, -0.4539334218444199, 0.7059419745168163, -0.7603312705256472, -0.43942682334153715, -2.8993206456790643, -0.9275971897762094, 0.16615997750887027, -0.61484357683531, 0.980402040220381, 0.7467301044131545, 0.7378761588896892, -1.2521798138433877, -0.7334022994471745, -0.13037533143294408, -0.4464945325492083, -3.008991506578774, -3.0320259033142833, -2.624762767470744, -3.4189989431147194, -1.1981486345097936, -2.107620461074708, -1.682043811191407, -0.0400444059283916, -0.6683339110248657, 0.6828184733605536, 0.13432396518972553, -1.654829618997927, -1.9193217682883985, -0.7637800389961195, -1.5288256654059338, -0.32058504676430355, -0.811086287261494, -2.2393362464648527, -2.2002414279936953, -1.9211343144284305, -0.9347233053545184, -0.7784643041408938, 0.5591904737420461, 0.3686070474654434, 0.3937603084262207, -0.1626821722723364, 0.45307519028025683, -0.6811135474675345, -2.563234087264081, -2.1605377018011427, -0.11419534873201682, -1.1458311498476668, -0.786096041790816, -2.0994756257898985, -2.6078863168548585, -0.7925619067794446, -0.9710070845959468, -0.26580824780463125, 0.20127266008300299, 0.45810614613703576, -0.768248851302903, -2.7224163032829654, -2.4083382400616262, -4.385474835304706, -3.408064984599683, -3.7361853124415276, -1.6730480169414994, -1.0952137390790513, -0.4019331329347744, 0.3181101280334797, -0.8634479125013788, -1.0312119770476376, 0.484743818543341, -0.7999418839130316, 0.5269621088428987, 1.1339244598056668, -0.9959620600821131, 1.431712685466522, 1.9255486342926775, 0.08375750999875912, -0.1418501763959825, -1.1121084341803893, -2.220914841960019, -2.5665373234468696, 0.30618014859262693, -0.2700864814510836, 0.5943869438411384, 2.1906107690913235, 2.026252931277003, -1.66255285622971, -2.703936386598045, -3.4993576953614456, -3.3307996349441584, -3.1037591814791425, -1.2163762812542616, 0.5732068068383496, 0.32107201458838014, -0.680788414446825, 0.6036430142600331, -0.05500456580470778, 0.6194887715900259, -1.8675734382761366, -1.0089964029176233, -1.2462542746810408, -1.3055892042373631, 0.42373951836942486, 0.29456768649087767, 0.6531334881844313, -0.2521451781847427, -0.3185815164551155, -2.3481704572983624, -1.5094938623077174, 0.479683618384598, 0.4582938947742307, 1.4724537535821551, 2.043609937186549, 1.215256210582073, 0.4269444797305171, -0.8013905052437704, -2.9487899544285194, -2.237980704857884, -1.4284812691905997, -0.4394681332330257, -0.03561140537294359, -0.3005314495844427, 0.9376092111809169, 0.06716326216856275, 0.8415685980650472, -0.45136281768452713, -1.770794618288397, -0.5287636131917428, -0.5566358503144603, -1.4844579995438774, 0.5288498521052404, 0.509942342300182, -1.871652604166159, -1.3945738844210969, -0.8697386026214066, -0.7561661084534882, 1.1002697459051836, 0.2170079808663222, 1.2171236982708218, 0.48382278432159287, -2.2819452724545726, -2.1074000829592485, -0.9767253591143411, -1.366192501006856, -3.3546176479479355, -2.8859289158668444, -1.2109772759384074, 0.22256134272473269, -0.2562631215261774, -0.2067983353966003, 0.4330667574772429, -0.7857927132716918, 0.19646468103768178, -0.359572393735762, -1.413318850402705, -1.0369921400067952, -0.16635368364313574, 0.5364389399360151, -0.15971285390690296, -1.6559032262640736, -3.027884792868697, -1.1667992665373177, -1.4717567500101671, -0.06338495479437627, 0.04097064645877754, 2.200963320681559, 2.343980342643384, 0.9056384074703385, -1.8718277316416323, -0.9151141434531858, -0.40078729011963543, -2.505533917842474, -3.1775399341600394, -2.326163607890014, -0.9926421811174017, -1.5749574699058788, 0.6652129634216897, -0.4445782776802769, 0.3217072996929571, -0.812838798617439, 0.5775411520855828, 0.3365106404276791, -1.1189846986083076, -1.5647235460284936, -0.817799990459654, -0.43513254403794427, 1.2015750852829419, -0.5760052474912336, -0.8932942812235641, -0.30151969327641903, 1.1648688025245393, 2.464104370856655, 1.8484294407873145, 1.9754922247634452, 1.0789513060672968, 0.13909910288182542, 0.7609442491968209, -0.4979291724318154, -1.9144765626532678, -2.0598886431874717, -2.9094583960851614, -2.183644736027052, -0.6472201008593926, -1.5326422836400748, 1.0117895347136372, 0.07114457344786462, 0.13933081199680775, -0.5123107073513551, -0.624942684193348, 0.5535371431401707, 0.11791622851372084, -1.5182897219790208, 0.5266682451309012, -0.11516798587001013, 0.30155910798832575, 0.3389568344264831, 1.7670311440879762, 0.9346864866545381, 2.3637745069984586, 2.8994352983509812, 2.29422270765857, 2.218482001481766, 0.2562596099411154, 1.1261083951383493, -0.2353942928937483, -2.216275708140488, -2.3324800202670426, -1.2973027411563829, -2.131072336525559, -0.17542376926778655, -0.6463593232044383, 0.1503137162833161, -0.8974015392438608, -0.6503000833846029, 0.18996423468402623, 0.740629533650921, 0.10666818472650519, 0.8696839197465169, -0.9997625945581068, -1.0439971436119635, 0.7674199163632618, -0.717573807286129, -0.9058450195045779, 0.575638697537033, -0.17437166862366069, 0.9561290494332702, 1.5945257876076206, 1.7508967131839621, 0.1855392572842652, 0.6573338184301637, 0.6967411189148942, 0.8279472579438832, -0.9308891835784371, -1.6035859759118354, -0.9745681167435641, 0.0031248590232996623, -0.679825674858558, -0.9976417131955156, -1.4114260936809346, -0.3249585732294094, 0.9294294353237879, 0.34422039574311736, -0.841380999694894, -0.1922505207812586, 0.35105988362299545, -0.35047390889405067, -0.34926091909249907, 0.062389437136531105, -0.1955198689723589, -0.8321918656385634, 0.5232959046828751, -0.4872563847619775, 0.5391000063464757, -0.10357260602437342, 0.3588361023036855, 0.34874563977479744, 0.259046313820818, 0.46973018776261166, -0.5275153025230895, 0.13190748897881677, -0.7420577656271481, -0.3932170430075389, -0.24631931285568068, -0.4761083225890865, 0.6427815093364809, 0.9692929569205516, -0.11178486802331433, -0.3299955811429272, 0.009152094651447389, -0.7847574209876425, 0.6030794005746594, -0.7327561485225589, 0.7566335349023179, 0.7234156415391695, 0.4602340521862689, -0.04772350231337308, -0.1301108597797425, -0.26221435943067845, -0.9496570953520458, 0.7537121010813254, -0.7212390442319717, -0.8743700068449006, -0.30226201812095915, 0.555002011550947, -0.7425147545138893, -0.7805619044584893, 0.41668166970094417, 0.6161401784339409, -0.17853177912089968, 0.5034804945852048, -0.8075298578829777, 0.9927648343142401, -0.5699710964327169, -0.6363978097956424, 0.03987446186586929, 0.35479808503130617, -0.2003840672210555, -0.7291963309034664, 0.0529138466431891, 0.4770677327052857, 0.8158437793350091, -0.5806678823952067, 0.40656647998203743, 0.6515987690114042, 0.9497410347572495, -0.019339480026837386, -0.1368923388168879, -0.4573918967212167, -0.09768064462393358, 0.22060860965627715, 0.7529580517364256, 0.26525204960552623, 0.6325842303851981, -0.7237159143939702, -0.25740932138454387, -0.351311401142246, 0.5607411374925242, 0.6673167363207866, 0.13190925336154802, -0.483583920107614, 0.9181323419279317, -0.3501479879971261, 0.371616372119985, 0.15187989157782678, -0.327714820463338, -0.7218759293743999],
			[-0.44343347599610583, 0.4331435745882328, -0.5096960528223589, -0.8022590717421312, 0.8566159700578866, -0.7725126948636905, -0.19675264654715097, -0.5019769031149575, 0.04247495159521897, -0.5665477386940925, 0.6164995403874136, -0.7320187428290317, -0.2706044446935829, 0.23805496228047973, 0.99941616951036, -0.9688636340133949, -0.99444556548077, -0.7377020988179077, -0.9732849278387139, 0.013719472306579217, -0.805891608404135, 0.8330391531064563, 0.7509551219653892, 0.9863121402494, 0.7842602676340826, -0.47648826858594306, 0.489663386534926, 0.87998963617739, 0.5489910918248881, -0.2784017522513893, -0.644220181207861, -0.8756662623583278, 0.5177898110374226, 0.7595551429175416, -0.7244229314602522, 0.47296130560644034, 0.010741977546147061, 0.7865574001193504, 0.9720667839240636, 0.3166376801938657, -0.19667954536063842, 0.2307995146776314, -0.45878215892183877, 0.4749420233896281, 0.4962146059261124, -0.11098072043148226, -0.8056049713041316, 0.8753000731933427, -0.5235383919607632, 0.12847909007908687, 0.5253075209461948, 0.5865712457479182, 0.026352656985657585, 0.9643105744830969, 0.520972664111556, -0.5408306093606718, -0.9035966505774891, 0.8411135349647494, 0.29369455800339583, 0.7184981310630736, 0.8989123231141276, 0.2047964807675422, 0.2543667023845859, 0.7630691071476743, 0.5261445506501817, 0.31541717069778896, 0.3284570973477486, -0.2033076762511904, -0.2822115554899682, 0.6366594437707799, 1.140196522470974, 0.8163132979328684, 0.4487171129486579, 0.39580386822989494, 0.6047643640541475, 0.031002619009274215, -0.36842435722320616, 0.12255212984616762, 0.20168787695863957, 0.7749114716846569, -0.7266481605361281, 0.3218360989395739, 0.07196666192228562, 0.6989889068641775, -0.0017687831700397005, 0.010836161546574186, 0.522781428244381, -0.7601076267107113, 0.49534408911928113, -0.7910538815933243, 0.06370704811955111, 0.05825526446507618, -0.028561691675276647, -0.1760479739890711, -0.5086551626675361, -0.9046248004338391, 0.48233832477505767, 1.4520177647741785, 2.0026786501449902, 1.07188671869061, 1.299188221928152, 0.39791525747345385, -0.7204995361425657, -0.5245719943156283, -0.008136435617030362, -0.012199342580958375, -0.5240136990621708, -0.579897546403773, -0.22351243692020148, -0.8318088387562654, -0.5875829801735568, -0.7607027907369077, 0.9981579386254724, -0.7444584948569166, -0.1099346441905838, 0.7362319860611276, 0.07605515794812415, -0.667213324992211, -0.1295543405966588, 1.347266370834414, -0.12395948140745554, -0.2689457364263233, 0.24927476765480228, 0.3141382040296257, 0.31430316447537104, 1.3167879944478342, 0.5501353283663623, 0.5425267697328752, -0.722307670614141, 0.7201569464579911, 0.10028139544030523, -0.6451983596275529, -0.20988177420037882, -0.34714379249243177, -0.5218691608254175, -0.4548251154720457, -1.0793533175167045, 0.8880290999577373, -0.031868801443349644, 0.340234557587868, 0.3623989802001071, 0.3081869209325019, -0.05836365897427694, 0.49020852878785237, -0.6866075170076965, 0.5585078064153494, -0.09874522547680063, 1.762101403590704, 0.9269854681706017, 0.6535734733044462, 2.2050233979119302, 1.8652881479761363, 0.6150470849518344, 0.3554848857368533, 0.3903962260094613, -0.4439210284618767, -1.1390051936211878, -0.030952840144380742, -0.034211608765014945, -0.1631109590828907, -1.5752574252691764, -2.214932669354206, -0.8589586813214202, -0.20197589076442107, 0.7105917916275402, -0.892635231558944, -0.24444770877290223, 0.3805150653547522, 0.16208893761563115, 0.467224269894134, -0.49719544930095233, 0.7059290644415779, -0.33585479399488943, 1.1077045765628628, 1.080637910136353, 0.16696887024878318, 1.0599386257746637, 1.6125769865497341, 0.27006275261401014, -0.6653277142173157, -0.6829163140498549, -0.6911590909446933, -1.0531691913170458, 0.21544296477887756, -2.254966420379728, -2.5041038873781964, -0.7711604035627286, 0.1754717224229992, -1.2515100790766385, -1.36435723846701, -1.674118831190227, -2.591235025239637, -0.4639521814473249, -0.39214638349630837, -1.1124692838933736, -0.8031400920037655, 0.4713627292488547, 0.618144584661029, -0.5851327248660979, 0.42198609741094795, -0.18166729318627925, 0.4631450143800578, 0.5706554921661757, 0.05995391753580126, -0.13668776558834542, 1.0691043854921825, -1.166421539914324, -1.2796984478265736, -0.3692773938694306, -0.29084994229011435, 0.8619106888660564, -0.25218425738728817, -1.7232441455416108, -2.577306353787023, -3.324009194478055, -0.2614461419045055, -2.574676601634689, -1.9800674957544873, -2.1284084359707944, -3.411553350049323, -3.0541235032786633, -1.7565976168639865, -0.6797423765204335, 0.6153713212878658, -0.09550336968696538, -0.7524209443589589, 1.1074372670923964, -0.31658145136888166, 0.5281426047754227, 0.3149484137082529, 2.0908812760984374, 0.7087002472185601, -0.37372124372906435, 0.469412442526574, -0.17383219704130687, 0.9139250114030821, 0.83595173560205, -1.3665339245000259, 0.5928650836228043, -0.7400795375612587, -1.7925776126844994, -3.3919152299138866, -3.9145145811204647, -2.860100287528857, -2.2610370912908992, -2.7279108158693814, -1.4993706436280905, -3.568084193106102, -2.4181348008150536, -0.545388216335557, -0.296309116755089, -0.9729640854114535, 0.2813291050207929, 0.07369164945526174, 0.41098428347594657, -0.9500035075598289, -1.055808657980213, 0.22555904846561003, 0.6170894596755484, -1.0873879705079696, -1.17122481854073, -0.7756387862656385, -0.7966180895096848, 1.977086474250582, -1.1710428169526674, -1.031047678095288, -2.5910256462750665, -1.3617691032481463, 1.3696098586574708, -1.0483718863570648, -2.4298005493478225, -1.773902333352687, -2.359745529839007, -2.0889405693411964, -2.7704152164854956, -2.7564978743326694, -1.268651023842467, -0.40452882753335007, 0.6635051589702603, -0.16157602261172785, -0.45106054826442676, 0.16274612455390614, 0.7893084360381346, -0.4180294440866878, -0.39637404657622705, -0.9105561828027753, -1.5815517692408882, -0.19121652936732914, -0.14564517467512555, -0.8119480399016736, -1.6830591037894391, -0.835829317910954, 0.18166119243702303, -3.5375321214180766, -4.46268574595641, -2.0894068131322663, 0.2401094291536416, -1.1219786038584738, 0.31450226858817165, 0.888286375126697, 0.2762064716342555, -0.13301436718986612, -1.6038963631501204, -0.509817024005204, -1.4592908355770617, -1.265150083130316, 0.723551628117289, 0.46818370034541107, -0.5567624949986811, -0.096978912136791, 0.5488382702833521, 0.8844822912450971, -0.43963420833677225, -1.4003187082824775, -1.2631459137333825, -1.441616930191829, -2.6723455471546878, -2.8047283179312976, -3.4462387981879834, -4.429028554490676, -4.322978406870353, -5.422881234264613, -5.374175322027685, -1.8390947655102132, 0.20344423286378133, 1.618350754490935, 2.000502730940181, 3.5734374635718984, 2.4342308511250446, 0.781846495002948, 0.5289659245823638, 1.9370337599153662, -0.3051776688767305, 0.017520630090405987, -0.7132262814035569, 0.6179143480876695, -0.1766055801642299, -0.8285899877610046, -0.374595600554124, -0.6105822569163358, 0.6908387732438164, -2.253785937639925, -0.8732097925261834, -2.0541627957919193, -1.9054603295631805, -3.4217661663405705, -2.505350563246754, -2.589385496659278, -4.236264337867769, -5.129724999181034, -3.0074687557823405, -0.46955696369865446, 0.025591182355305758, -0.9629347007270805, -0.06760225820144765, 1.8783024506729256, 1.0954904269908727, 1.0382801069251109, 1.1071293680573149, -0.6881491515619861, 0.0968386917764938, 0.26662136891622373, 0.5914943067960082, 0.7803295926496039, 0.16328190065296955, -0.11760186469370915, -0.059941900103375585, 0.8872786016432468, -1.3474480488253746, -0.520303641419243, -0.18819708049820405, -1.214836443073192, -2.156056606291053, -2.510680004893843, 0.17542356581264376, 0.4756279345132613, -1.1919535986635725, -1.6952599469914367, -2.0018327306825685, -2.665864643761564, -0.6276504998820267, 1.230967914911856, 1.0081246852126549, -0.17416745641398773, 1.0068675083076957, 0.1172804612508181, 1.0274528908183536, 0.4438649314961024, 0.37849912969803345, 0.06440278357226875, -0.29795685365178026, 0.08404360322853403, 0.6610629041964575, -0.29142092610065085, -0.10041308678455163, 0.526601257231277, -0.5391160957042395, 0.5390328655753864, 0.4867484862864825, 0.4130658118905135, -1.8933772248764575, -0.32789807222258716, 1.1497380534021862, 1.4936256193445325, 0.2300305709502821, 0.00614289585254667, -1.2239780725608047, -1.7202214729726177, 1.3500013365160028, 1.3000636796425877, 1.643383455125389, 0.447757559836507, 1.6536672403602806, 1.642601186184424, 0.42889303987573807, 1.1918394029303028, 1.405091180608285, 0.7449422229620962, -0.28049106500416765, 0.15944361697089549, 0.04225014489340019, -0.18770135307966163, 0.39929515607667504, 0.08224338251150197, 1.4323634629918789, 1.3548607311180696, 0.11698996227841041, 0.25807404138775575, -0.18631267678536445, 2.3231162021365517, 1.5079626690914636, 1.151511733866909, 0.6826469743137696, 0.11634031567169252, -0.6028335279816758, 1.745896034592111, 2.624763286496712, 1.851361135903534, 0.8823777214307145, 1.1906015680253283, 0.00011501929853248234, 1.279255112287882, 2.148553936134602, 2.3690185085589035, 2.3642109732613594, 2.2866707999640816, 0.5683274580779236, 0.1721223832773552, -0.530791322880785, -0.9360399873829293, -0.9178061403712909, -0.36568816449509983, 0.11440552968177416, 0.7073320989583279, 0.6484439918244419, 1.3222621223432467, 0.5551797484583547, 1.9190923379735252, 3.63916342273762, 4.311467261582826, 3.4709965857687965, 0.20180974782715427, 0.09116023004830599, 2.778883019081532, 1.56634353691456, 2.740119372711574, 1.8931719615563394, -1.2687870436681539, 0.329715045562878, 2.0723763719260084, 2.3981024134008786, 2.031602787534537, 2.016309114313977, 3.2425840741116803, 1.5656351744200148, 0.7906040846790293, -0.758390013315954, 0.09120067746420668, 0.2308571374603856, 1.0358860297796912, 1.4130182612981865, -0.07570769858387053, 1.0526177524100861, 2.6524157748454784, 0.5642671365596262, 1.4261973831456514, 1.9185552803834338, 3.717508643197764, 1.931357230959642, 0.5111694503678612, 4.066382514378041, 4.835061585871748, 2.8360925472515426, 1.454983119302756, 1.1803512917143386, 0.17072992560026626, 0.31515460532714146, 1.6224443541990095, 2.3472215868791864, 2.467823449236414, 1.9372371031722864, 0.9835990759626907, 0.5666338244371351, 0.11037253848097629, -0.16040407504119303, 0.4460516799039582, -0.7284040336685552, 0.8123382142632304, 1.7173248630348608, 2.23928413521642, 0.6514510045586203, 1.4182117103473626, 0.7740630554499947, 0.10936308413196687, 3.170244899875962, 1.8239033139953318, 1.3008293643967823, 2.2623208750862913, 2.385741903220896, 5.024065379028672, 4.513237911023019, 4.329474097079099, 4.264419778239103, 3.854342884205675, -0.483463318728451, 0.6651327082670547, 1.379897205720077, 2.706634857848351, 3.043352690183847, 1.520557563800317, 0.10833324505564663, -0.8164419909669839, 0.3999447331270929, -0.2166753159956536, -0.4690282437155162, -0.29569857721766296, 2.574987145326487, 2.5305941590422405, 1.2445123219916399, 0.8159665517532793, -0.27500754280402284, 0.8273327176484511, 2.64295233958227, 0.9557496910152489, -0.6558900955232851, 0.17258452157961615, 1.3007240417892938, 3.640152877216692, 3.7419436859894337, 4.8440893359797315, 6.022733790226236, 4.197302531090857, 2.1886089206589667, -0.059837230759901376, 1.8782389114188063, 1.433785282722341, 1.555120512640125, 2.182912876514317, 0.9903477904029396, 0.6395617521307095, -0.12625758527822484, 0.20238036112751207, -0.07717938318743973, 1.1816952873938702, 2.4857082227233596, 3.2301671394514013, 2.057944896426541, -0.24858661088059153, 0.10412756399286276, 2.5343707379926226, 1.1509070805391735, -1.0651298679308994, -1.52259698306071, -3.7839013217569284, -3.037781808800796, 0.2782306271366859, 1.0872329770523605, 2.5537842517718268, 4.077231281112925, 4.730715297738168, 2.5090391676101764, -0.16619281992219723, 2.105292410915331, 0.8610502732070513, 0.7913761244422679, 1.1590276638687655, 0.19804907249370454, -0.006749334582476507, 0.6476698505159209, -0.8868414795808421, 0.8263460036379336, 1.359238689645642, 0.793688356829559, 2.045824031623157, 0.10718649149796038, -1.0775727877542283, -1.5133752128846045, -0.6158078239671324, -0.016882487485698303, -1.5426622010995195, -2.745856989695269, -4.690279325308357, -7.057057034183721, -5.306160892079533, -4.722523999271852, 0.003573796604557768, -0.7814705507683691, 0.7067853562309264, 0.08434992913680169, 0.17708518486001304, 0.41770226259023335, 1.6331659845088846, 1.0532062769725048, -0.24608719140117674, 0.08132874879828854, -0.7334650956657187, 0.8130127642331684, -0.0167916493201421, -0.029362539696409454, 0.7708680342440559, 1.8288503934868896, 0.6049927365457549, -0.5198249232245957, -0.8669944459013686, -2.289205973088186, -2.897123742017731, -4.318640816983813, -4.021320470507261, -5.273511836088427, -4.805647856778865, -5.4230106860801515, -6.015279345818891, -5.738466506125236, -5.342345126133439, -2.9664018200460522, -1.339338603431479, -1.3169340294002292, -0.9973176641757366, 1.0849718873225276, -0.621876647749639, 1.311711996554596, -0.2370665942332135, 0.659219485189365, 0.812089300395995, -0.17706337804294847, 0.012921347284093443, -0.28839505641906144, 0.2080604350249917, -0.17906559618982515, -0.057775525865951145, 0.024636768815640135, -0.21525567292932143, -1.6704162163763534, -3.114311260282489, -4.576880025449349, -3.704148456636968, -3.303659400062643, -4.57253555245482, -5.192866817032539, -5.4060785450838695, -2.808140717203618, -2.5203649529559162, -2.1035317440923977, -1.2566787970363573, -1.2800240424681752, 0.031449832788938134, 0.5776560389489501, 0.19505732141145612, -0.022062525515899215, 0.8685346167351056, -0.33829422126166614, -0.7581291977700206, 0.07422966116846297, 0.46144537291972787, 0.4573155716997186, 0.583700572278808, -0.8931969526593592, 0.24463491737098722, -0.0241802868732295, -0.7047055139122601, 0.06945051436648417, -0.14939180310815534, -0.7105986242429683, -1.7800333576060672, -0.8490524503505308, -0.2683130987092927, -1.9947083824336473, -2.102655409936425, -1.096366160025051, -1.868723149546639, -2.661606279386635, -1.8026062375313137, -0.9230581168752153, -0.7466256245214451, 1.1557809222736084, -0.6157441871449322, -0.7644619363411941, -0.3765498856550897, 0.9791851075647718, 0.7063070371858311, 0.6183907762241976, -0.8752014388218519, -0.33540020341773946, 0.3415386540558756, -0.561985784476914, -0.42785006067581494, -0.24721791163806128, -0.5683789867809494, 0.19350806237954027, -0.5319606415014599, -0.4055977904681276, -0.2040195150093468, -0.10587420129403481, 1.0002586964975193, -1.149541512941143, -0.4289709954611771, -0.4290714961041911, -1.0205298223216177, -0.42985033920797183, 0.11581236886529168, -0.27218235543395614, -0.0575284102808307, 0.16457042645310543, -0.4361377578676718, -0.9289589108783705, -0.8001416605023368, 0.581904348675213, 0.3158789831957507, -0.7601097853111187, -0.4544484735852947, 0.9408325283330892, -0.41719723574153056, -0.7863930076006715, 0.8609754442965016, 0.4480453811049047, -0.32293671528953977, -0.09405068147411709, -0.6891931888787342, 0.27294117661971895, -0.44275846971233, -0.31408796238936093, -0.44087182933844626, 0.04358045050394005, -0.3076762766694227, 0.9955218310469889, 0.9114610387475589, 0.7570209703204398, -0.7744459782497071, -0.6236557130683129, -0.19333782328122415, 0.013844054602372613, 0.12265232792868638, 0.5436162575190329, -0.3515856198199909, -0.44780926241791086, 0.6419387336065223, 0.43792741303043403, 0.040177567868139974, 0.37506879601583965, -0.9556767488440969, -0.23953322603301785, 0.21338438956633343, 0.6552720459635157, 0.30092404600623013, 0.5811149470777428, 0.940702338286624, -0.8174707553050233, 0.18095480411642356, 0.11560250450481528, 0.7086295508006417, 0.5968560204987998, 0.4340352130817089, 0.077413545932846, 0.24466624969498607, 0.24956715971456989, 0.8887989384993737, -0.43995829522194896, -0.4112482096853767, 0.2733687591352889, -0.8923616666327865, 0.07383064021165708, -0.8149157585401832, 0.922400095335957, -0.004650444934467757],
			[0.1412627952014911, -0.7435853950401561, 0.36809709468526775, 0.4985931367786809, -0.41426769438330346, 0.3976476861235603, -0.5420146561213017, 0.2095065290632916, 0.6141937811186362, 0.693404567012009, -0.8326477974502091, 0.17054494516462837, -0.7693794693509526, -0.5161355233301097, 0.34275282519592265, -0.9937199140055615, -0.8194215930416422, 0.025453705874988408, -0.38074830629634127, 0.07137781860086534, -0.03908402042584225, 0.06372606378123091, -0.20388803706052405, 0.9248166342104165, -0.7024450995356015, 0.03282316426986753, -0.5575021258323467, -0.06985454669088709, -0.8203944328062698, -0.12635515804149478, 0.33718176374602393, 0.3429437718538564, -0.48714583981055615, 0.5868423295813039, 0.34619501876582426, -0.9731616284232572, 0.4371622066457359, 0.6809459661125219, -0.41910382124779266, -0.5172120027991203, -0.10302948451537697, 0.445964088726885, -0.9877019428816753, -0.5210679556479868, -0.14512428402889435, 0.7114221120879441, 0.04376964641131753, 0.5306035554936717, -0.5653954876404059, -0.9662134795483999, 0.39782679183519987, -0.9438725248052586, 0.6634367417426326, 0.1762056996006005, 0.978591381706055, -0.6294633702997228, -0.14362460403172062, -0.14576812120749905, -0.4515916640195341, 0.5372211780885814, 0.506581844901953, -0.4775873955425438, 0.31463174104251834, -0.7685811572009199, 0.2130104205734712, -0.41738539041696143, -0.19279795540616199, -0.41743636483309093, 0.6652469030160868, -0.13148942721819418, -0.864371556457264, -0.5091498388138213, 0.40346248201860047, -0.9804866563854768, -0.9380626659047273, 0.18110609070764028, -0.8374054138023248, -0.42819560364398973, -0.7483094418909412, 0.04837320133724183, -0.20608263860814358, 0.4389449022668699, -0.7232656489499587, -0.20892834848645103, 0.6122640450024917, -0.6350642389984906, -0.8970806768462801, 0.6594117784880017, -0.4398952841210474, -0.5159446256162576, 0.7563067846340128, 0.3933739233315749, 0.19917135804066602, 0.30933395299199906, 1.826233135831094, 1.7443633448230096, 1.9233711651831928, 0.39580810853157894, 1.4451668807720437, -0.2559767540740854, 1.0330154009523622, -0.4511598717179315, 0.507189546926698, -0.6144935217339625, -1.0189922382242036, -0.48144891535304685, -0.7032827992702864, -0.0067104083277827065, 0.8478322596299325, -0.011864884335483241, -0.8709546297168841, -0.9753033091881704, -0.6359517004279036, -0.9785494366130627, 0.4582125158098134, 0.8688945707816187, -0.8600885415572254, -0.29667295529821597, 0.06419778672488452, -0.7492472114267716, -0.8277981192177479, -0.6467352934761635, -1.2415458778436288, -0.18809440166679034, 1.6640400005768077, 1.8466070922397273, 2.54980806713342, 0.6499718220138904, 0.9924053023315267, -1.1306530312913199, -0.0027063096466478868, -0.6876164807138988, -1.1784501529984766, -1.5704583811218595, -2.4226062527924364, -0.7244844899996383, 0.43999228722977546, 0.4101200660514364, 0.6963129981555909, -0.9638914102724856, -0.878695769052757, -0.5675136481790646, -0.31332220209785966, 0.10670281770957875, 0.9542313018868492, 1.1198533289538717, -0.6913854107702192, -0.4979497093252438, -1.1585578403926462, -0.567661246759065, 0.26899661977334594, -0.9384759679729625, -0.21758421165554803, 1.6185761099666012, 1.281556310628928, 1.9394204034543527, 0.6913940108716626, -0.6210033549096406, -2.8903590911907835, -1.276931678099433, -0.8337029420573765, -0.7771159019149408, -2.3181536072470683, -1.3967606692589436, -0.9264870795483424, -0.5454530421112241, 0.28560663838335704, 0.7503543137181566, 0.3612074787954134, 0.5352815491842411, -0.5207930264803882, 0.9560081596442374, 0.3332937504948283, 0.44024484760176985, 0.5839770420590714, -1.1429228660601345, -0.048101814439572343, 0.34570005963563855, -2.2888916398844206, -1.2965344162171497, -0.17508513451848298, -1.7552006586340863, -0.025460672381230152, 1.6229253770072296, -0.06548566083481533, -1.157900286635046, -1.6762217212355484, -1.7842465202443611, -1.836019794869301, -2.55165659411055, -1.2999521069766484, -0.3114893302759141, -0.1572658204733575, 0.5137391756113222, -1.0013804374095956, 0.3431023827086148, -0.021386177495396286, 0.6373262413049696, -0.5265973333385342, 0.21501074066860576, 0.868953590831278, -0.6342335075405036, -0.38736779745009986, -1.00647255825253, -0.6852137506762427, 0.19157757503775702, -2.334892939975321, -1.9848995134650707, -2.3144294806387764, -2.065280660115481, -1.3917120148940618, 0.606177890610098, -2.386123188463782, -0.9852735514855473, 1.3639284983134046, -0.2916420929596167, -0.009973160900884246, 1.0312516102468736, -0.09122369891579422, 0.001085662339356343, 0.4165126767345613, -0.7460725892460094, -1.0294328907440928, -0.9621131531167538, 0.13842070231603998, 0.7069938919629215, -0.5603547354180892, 0.08376374666651432, -0.3602443584542514, 0.9059423133968487, 1.1454584759251234, 0.26872943733929094, 1.2061014466264501, 1.834103198913453, 0.26827994632956376, -2.464727981925747, -2.590810698309728, 0.7436198939598506, 0.07394279051090254, 1.3446886899968784, -0.30797872292286127, -1.1645835884288014, 0.1740954379105487, 0.9873606257245746, 0.8961539056000988, 0.7963554842936464, 1.803099977306044, 2.53325043477244, -0.1781498753578619, -1.5903135486759985, -0.5090217905722061, 0.11353383380225704, -0.4400740498407978, -0.7619758029611075, 0.45123691728345644, 0.08150846566439235, 0.018244085402786197, 1.5723385983125324, 0.5544601768112644, 0.7419749917964296, 2.323867630024751, 0.6111278764385623, -0.018344897295305095, -2.5105316619180367, -2.061220847308441, -0.09977410515321572, 2.5137888297278486, 3.413142071878524, 3.2378926488687223, 2.623671095601735, 2.7083439419817825, 1.9344963943370883, 2.403666297385499, 1.010179736154832, 3.1879116383738775, 2.196588856583536, 0.5305885417215043, 0.1120983208073832, -0.268272545990935, 0.034686929339033355, 0.6690213309961024, -0.09275361539644855, -0.3540065377267448, 0.6927572991379968, 0.1584586843029086, 2.1255761859382467, 2.9656983727207686, -0.20891829598928544, -0.9463081567477137, -0.6534995057773628, -0.048676025329479025, -2.522658603041438, -1.590118110080682, 1.6115577983189355, 3.5323076440195473, 4.411964851725704, 2.881792291810245, 4.826637516885778, 5.308978330748571, 4.748754679248481, 3.3542758753799258, 2.67453674478037, 3.2473853140461446, 0.7889492068724284, 0.9131137264823531, -1.3745466663333097, -0.7908892559605019, -0.222870681925922, 0.04473320675187198, -0.5578425308532462, 0.4520404385307928, 0.18557272394423655, 1.0282269786833562, 1.8670933560229512, 1.031571522896783, -1.5745697391998816, -1.4391186912092777, -1.8197667430096345, -2.9473343145794755, -1.036822140800738, 1.781253559252456, 1.2165473451743747, 5.5193996515998425, 3.6438586053079556, 2.7475008916319097, 3.680170762138317, 3.32305826462049, 3.4585828910959364, 4.5912430063234835, 3.3221681267213703, 3.273758335991458, 1.2362693168409264, 0.6737400467367103, -1.156586249813831, -1.073455933387874, -0.339693588742232, -0.6596228017720778, 0.8960982625295819, -0.02960499646849213, 0.48983465916596, -0.12090220293541262, 0.27006697443410654, -1.5498818244372115, -1.9879741447870753, -3.059120557888133, -2.459422402740101, -4.6910619023471885, -1.1971414269744582, 0.8989337701870969, 1.8896414512317499, 1.9304621891446552, 2.7196184996088055, 1.2822311204973778, 0.8672298533228893, 0.38443607904504334, 2.5677099427557675, 1.4386004022477312, 3.0805080591818235, 2.168589910233624, -0.7397682074107015, 0.3809543302623868, 0.42645033511067065, 0.7213539223551263, -0.7951239161048527, -0.6372118201595112, 0.5203487788297267, -0.21354924852853152, 0.4291609350850394, 0.0004951605989081592, -1.2301414271675972, -3.001026864212358, -3.5724715689187456, -3.571970269102253, -4.706940468991571, -1.6920476379546965, 0.22039376194743746, 1.203108451153054, 1.9203039067686074, 2.21154395163759, 2.3120132686588724, 1.5992963147346768, 0.06206185746999419, 0.31523100355757355, 0.36245088892642074, 0.07744642421074298, -0.7045992239777913, -0.03784703224023057, 0.7057952465659664, 0.3952597646032721, -0.11311911371193141, -0.20040164888784445, 0.7242168473283928, 0.752799119385262, -0.47168243585170044, 0.5190998033717369, -0.8698400717371862, 0.7379227603255245, -0.20460066157783224, -1.8858318100335234, -3.0474555950987368, -4.3530188728984465, -3.723322848921238, -1.6505073965839088, 2.184765131787297, 2.11398479055163, 1.0313610521654897, 0.5097642645290371, 3.579080155189291, 3.252924985935412, 2.3986261761214815, 0.756073918128216, 0.6141282687244263, -0.1713748618234293, -1.2436739245250144, -0.5016756031350286, -0.13856734674911103, -0.8126356534056645, 0.503350822414254, 1.158175489433548, 0.2832311665379426, -0.491846250804228, -0.6621385085987912, -0.8601025381494021, 0.18508820161703618, 0.5695876432648983, 0.26261412246290905, -1.3180025558294002, -1.9847263832678015, -2.5354380773702427, 0.861248184912323, 0.9147240821473452, 1.6310326990050443, -0.055144111029877665, 0.8107283670094924, 2.413294032633002, 3.726371023165539, 3.9606025649229877, -0.16436682209118117, -0.3605274856168825, -0.7943757234240965, -0.4058998481600095, -1.0405268261973297, -1.6129052146462162, -1.3395464346748578, -0.33914586927532253, 0.5493652694558877, 0.028616353011361187, -0.30726631655171305, 0.6191231976031628, 0.2935126299482147, -0.821954763961808, 0.8778429725118342, 0.15926653659369466, 0.05570672086950866, 0.6623724773677566, 1.3127966116214325, 1.703057005120848, 2.354072116476252, 3.22571698916268, 2.017705922694386, 1.4065505240332719, 1.387846140015789, 2.229540340855324, 5.170558610327275, 4.157882738891338, 2.468493386306042, -0.94218382891204, -1.0847109348788784, -0.9331957443145459, 0.4204097674133596, -1.604054276140866, -1.4275587053534977, 0.06550479171676044, 0.6751668101267537, -0.6658119105394282, 0.20378077533186292, -0.9320088455029012, -0.35644227013808916, -0.8643903517733614, -0.029999623814942835, -0.4143310392767816, 1.497015506782688, 2.871280882001135, 3.8884087622782975, 4.287438378861152, 4.581681441905479, 3.9452131984864525, 1.899563403671072, 1.6495795819614336, 4.56632984604353, 3.9187784258835574, 2.19716957217459, 3.3470509207385044, 1.4759788636408655, -1.1752012502359765, -1.0405027214502824, -1.6422189969759347, 0.08402519337160982, -0.6654219615828039, 0.9045836798515421, 0.3410291322932754, 1.0278552300878456, -0.010876108711857973, 1.0403703469973933, 0.02212699862394496, 0.29913445758174717, -0.180068516438918, 0.05747780187054786, 0.19032089125683477, 1.603651002950336, 2.259430416615757, 4.364595300648084, 4.237532031381448, 4.9741957392108525, 5.671208030548412, 4.952807926195433, 5.339321418174539, 4.7652794992974705, 4.772502105103833, 2.6976759847056706, -0.772289246412561, -1.5136353822416768, -0.30247020354652554, -0.37943823057719184, -1.6972618064531328, -1.6024224942653125, 0.11955449335934044, 2.027503793479589, 1.0830506496729708, 1.0408268391289477, 0.21409769686635968, 0.7850183431568969, -0.9419740865706236, 0.913584981153821, -0.5621988726249889, 0.2611504369438916, 0.8458574690783877, 1.3147996006792435, 1.5317137727759276, 1.9353482276130942, 3.775041762282534, 4.291771784282475, 7.116886750229071, 6.13659294999438, 4.570285903863586, 4.554060584683435, 4.567497806967888, 2.892566870165185, -1.201059329157778, -1.8059528109957173, -1.2473867826398624, -0.7382747617797707, -2.4722608993608777, -0.55728602800341, 0.5855977802452406, 0.7628185973747279, 0.24106401707407793, 0.7934827919290206, -0.45005373957962075, 0.5691037562366188, 0.1381695531183662, -0.7815410467627801, -0.9193771166158339, -0.5180827889261358, -0.891873809228194, 0.8646004759943993, 1.9152222112729143, 0.7131645004145921, 1.1413225107185776, 1.6983373481383748, 2.7598506830304617, 3.3191374882561497, 4.450963446338718, 4.369658890050174, 4.112477432239288, 0.42020191754525393, -4.104562793381094, -3.0758679094030006, -1.3595645366951925, -1.4145830221563775, -1.665578975574227, -0.8517569806137649, -0.3669114108253459, 0.32321591349725765, -0.7944830162732055, 0.8283372067091249, -0.30098547129034087, 0.6885999047737531, -0.8291233582880855, -0.6887357438221682, 0.04248566028374968, -0.021251097577574585, -0.24976179521477468, -0.6958307517663787, 0.33569534103373005, 0.13280880013765967, -0.3157976143926952, 0.7994975798428031, 2.8165078005186728, -0.3908242951852728, -2.2409716178944, -0.6506406988651793, -1.771136286888516, -1.8522159420593114, -2.9615193565096476, -0.6275985847410772, -0.9392541106920763, 0.14754213814762288, -2.7053592160668773, -0.4533753267130727, -0.85388825686624, -0.32938215172489377, -0.5534919810627555, 0.13882514039484492, 0.08697176547692279, -0.20919218456356914, -0.26732833465229033, -0.9256250397734553, 0.2852243439108904, -0.984352386278876, 0.4438919301344316, 0.032920565554651685, 0.8513407333609974, -0.22137750949408544, 0.14781946956991118, 1.4744183667160404, 0.7469665055068697, 0.2854311591952224, -2.8720744666639813, -3.572395254329751, -4.132524792819019, -1.650712826514724, -1.2173242889065357, -0.25219363848878396, -0.1655149944359771, -0.6976245171396157, -3.2331171833725723, -1.4221692578900471, -0.27304870194621567, -0.21325742773028805, 0.3866371753563151, -0.24707432015424927, -0.2823666709151655, 0.45183793490668167, 0.3306990343681928, -0.7780752033812321, 0.6941564088736037, -0.01528242939999052, -0.10988694169447565, -0.30994022167681956, -0.7335794357012283, 0.9138365429091085, 0.8194743667649482, -0.16455527718292584, 0.5708266221664765, -0.27006935198562504, -1.5100168652192623, -1.324951611167504, -1.8943778604821395, -2.7550290406222753, -1.1168348494153155, -1.5223458254013762, 0.44039294997440276, -0.6601344123767904, -2.4768797413853556, -0.6455089773849083, 0.5725442309570916, 0.8807302892870351, 0.003130346565019004, 0.04580977371316804, -0.11849202677421417, -0.6004037471388397, -0.40723537636518925, -0.8701242428297893, 0.8490800186372103, -0.7728327753318319, -0.02293473213451223, 0.6239184413074426, -0.49362578602129464, -0.3975940140638473, 0.07924583581041648, 0.8064964075468197, 1.1866187046091314, -0.16181891554068217, 0.6448430217180972, 0.12868410078961984, -1.3630162374837838, -1.6665065414490137, -1.116112743367299, -0.5381068410026134, -0.3819093013014157, -2.0606690646263885, -0.9833165886788461, -0.27292388338162454, -0.750475809546629, 0.9926129764617302, -0.09926495474448055, -0.6263174265967463, 0.10540145946775592, -0.39470484045395615, -0.0016723276973036327, 0.11401265500379854, -0.10406052699327217, 0.805640722765251, -0.4660251570856843, 0.5468515321997198, -0.9515160629813617, -0.8316215508649396, 0.05366689144384881, 0.6028059114997629, -0.05174654802079853, -1.0985454324704618, -1.4218838287738333, -1.0799468875673812, -1.4081655181680046, 0.14712452189833647, -1.756770952357961, -1.3868480776493906, -0.37522699261766, 0.0645255683373945, 0.243111927081692, -0.9463734399084319, 0.23232678644543175, -0.6195513459658282, -0.3791355561350404, 0.18266914591802852, -0.5906789480590668, -0.6241181910967462, -0.09635389612625822, -0.9482666802019466, 0.2555558285809143, -0.7227524469282534, -0.8498076042630429, -0.5160119405843195, -0.9359547728034252, -0.9301362019634789, 0.9542411891640596, 0.3223491013547326, 0.15699415773139883, -1.025614181708526, -1.1117450704269076, -0.2805595024838458, 0.6216414794443693, -1.008399111026316, 0.20033003325876259, 0.17689790141883205, 0.46762881721433697, -0.7147697466307831, -0.8285718661201963, -0.8994311039956692, -0.8592685547393221, 0.10739947168200331, -0.09635307260775061, 0.9966528429935111, -0.7598436898339451, -0.12076364304262821, 0.8557387625307626, 0.539938770347137, -0.5707206442935453, -0.16280970649901505, 0.7616698114648912, -0.09590292542136103, 0.9385667842786223, 0.6843677423989676, -0.5093841390071301, 0.7520625675906296, -0.6221415818853804, -0.2861724216891946, 0.41139607247598836, -0.47960056107653365, -0.2772286726719204, 0.40007821979503966, -0.4678564857050751, -0.5523405537093131, 0.6104726078425675, -0.09536802335946337, -0.8879369015875245, -0.6829170388919574, -0.4994281764499191, -0.5938009363783223, 0.4093586872660926, -0.32450918673678375, -0.14371000273515966, 0.16695515690034357],
